{
    "configs": {
        "epochs": 1,
        "lr": 0.05,
        "context_size": 8,
        "batch_size": 8,
        "seed": 42,
        "embed_dim": 4,
        "base_width": 8,
        "dataset": "data/The_Expedition_of_Humphry_Clinker.txt"
    },
    "model": {
        "layers": [
            {
                "n": 8,
                "m": 32,
                "weights": [
                    [
                        0.006399138791921477,
                        -0.057467667337337505,
                        0.10645441953363564,
                        -0.0731207853457592,
                        -0.1245670404592846,
                        0.21355753064426747,
                        -0.04328680747622259,
                        0.0039453179887944945,
                        -0.14100192300496056,
                        0.025268462108526023,
                        0.07794392706051392,
                        -0.23943280361105085,
                        0.1598320703864219,
                        0.16153213151868154,
                        -0.05473209952467989,
                        -0.11513227318413875,
                        0.15476560151554963,
                        0.20454311554611795,
                        -0.04250884225044918,
                        -0.17773358751275548,
                        0.18194147488916823,
                        0.07306306323843431,
                        -0.7423807619258599,
                        0.035723925877095816,
                        1.8435107073599575,
                        0.8624297084171516,
                        0.09227942258218098,
                        -1.1889708915291866,
                        -0.784292191636831,
                        -0.14079239190781428,
                        0.2341210772855654,
                        -0.6899020881516598
                    ],
                    [
                        -0.006277115693644572,
                        -0.021176893927110325,
                        0.07560251303616994,
                        0.03141761671105487,
                        0.16527080449145481,
                        -0.07409500069914479,
                        0.3056469493904759,
                        -0.12328564871465353,
                        -0.049561462087486095,
                        0.0788456864538507,
                        0.06714073148669444,
                        0.04357785048738157,
                        0.06651802284740693,
                        -0.02736172138188056,
                        0.10532847024895939,
                        -0.1201445751275222,
                        0.23144895473699043,
                        -0.15269723771673638,
                        -0.027833285847323794,
                        0.04455334403716266,
                        0.48752933125647185,
                        -0.07933621794505366,
                        -0.29764113975001527,
                        0.37676102683723145,
                        0.7664613286213663,
                        0.3338675013688626,
                        0.6794113573130026,
                        0.2993179756659743,
                        -0.7436678465411584,
                        -2.017927179778623,
                        0.023331357551216594,
                        1.7745198984319805
                    ],
                    [
                        -0.08188462521606568,
                        0.02221665436534075,
                        0.049399268085454674,
                        -0.2390784106907549,
                        -0.01569780534919765,
                        0.04912367407116375,
                        0.14223199139747467,
                        0.0864451807503509,
                        -0.1150171814491468,
                        0.0021945829164141317,
                        0.18679570190155706,
                        -0.02607991389831809,
                        -0.18835459115226152,
                        0.03998773122073926,
                        0.36666541895053106,
                        -0.05786369763172305,
                        -0.24464706137255993,
                        0.20032065610464264,
                        0.7314333974894939,
                        0.4016724369519534,
                        -0.8739805785310722,
                        0.491018761596871,
                        0.49328657394279607,
                        0.215837073452889,
                        -0.3827225776908035,
                        -0.6246809567163034,
                        0.7449826371300002,
                        -0.2955632862263131,
                        -1.2043377278628078,
                        -1.424786873735237,
                        2.350071007951536,
                        -0.8606638894542316
                    ],
                    [
                        -0.09408958261703784,
                        -0.1651463729814057,
                        -0.009981152352658482,
                        -0.006074121863718759,
                        -0.015430403640616238,
                        -0.06692186231679062,
                        -0.11435440320877208,
                        0.06355475221999182,
                        -0.016181728853441622,
                        -0.07822654295991417,
                        -0.1125300021788105,
                        -0.066507169836012,
                        -0.13629383953585902,
                        0.04252231146485331,
                        0.12938909444506275,
                        0.21665195232784798,
                        -0.28314822871634904,
                        0.1696313910107639,
                        -0.15971084315785455,
                        -0.05945407545614766,
                        -0.6049398429690648,
                        -0.24821532794700205,
                        0.34402437693424637,
                        -0.19658142177969737,
                        1.1594991206670908,
                        0.9174913899618545,
                        -1.0578096428011894,
                        -0.48536881879986116,
                        -0.8265240164754495,
                        -2.344683554693826,
                        -1.6247875517308843,
                        -0.6071323783621244
                    ],
                    [
                        -0.05386612065486544,
                        -0.03347610852128098,
                        -0.16574406757607973,
                        -0.08620733425003688,
                        -0.0880951518791214,
                        -0.020423776338163585,
                        0.04327005615743718,
                        -0.004661462077640025,
                        -0.040920804909599054,
                        0.0394467407713489,
                        -0.02336154635011764,
                        -0.11935216890930277,
                        0.07641920824213395,
                        -0.06706178752803947,
                        0.10567093323821575,
                        -0.29012972271076415,
                        -0.15430284317700363,
                        -0.20467061351697313,
                        0.040302345836854145,
                        -0.008703106063333575,
                        0.13629014685323754,
                        -0.09598411210066465,
                        0.12575724300952223,
                        0.09988979312152657,
                        -1.2138381019188063,
                        1.380531313075093,
                        0.22716516789987656,
                        0.28579665793326287,
                        -0.41457036266638175,
                        -0.3772597467977646,
                        0.9733869667663253,
                        -0.23490858820016222
                    ],
                    [
                        -0.12023391977098616,
                        -0.026734709846689853,
                        -0.06419079888875365,
                        -0.12336057813255186,
                        0.08907229556003311,
                        -0.08663589533173909,
                        0.08371239850793512,
                        -0.31489274679860907,
                        0.065172754815441,
                        -0.016732697027096788,
                        0.14647833898315168,
                        -0.20551811495238387,
                        0.08058590369841583,
                        0.13855120457095246,
                        -0.05533801715358154,
                        -0.22850240971669902,
                        -0.05122612508439128,
                        0.10881080354412756,
                        0.14496522275839052,
                        -0.08990361508467515,
                        0.04856704523998766,
                        0.18262590825452882,
                        -0.07275237341348761,
                        -0.2710887250534304,
                        -0.1276053909008719,
                        -0.3789394671289685,
                        0.33517730480126884,
                        -0.17319799449552994,
                        1.3431247027092506,
                        2.1466487107147785,
                        -0.6382369045550399,
                        -0.5924652692351962
                    ],
                    [
                        0.010118852993042238,
                        -0.0834365425127003,
                        -0.11859358528664513,
                        -0.008120802682089975,
                        -0.15821258756532153,
                        0.1154189245829516,
                        0.0883341970751336,
                        -0.02783662083721297,
                        -0.24464110370889067,
                        0.044606079351631335,
                        0.023944915999511204,
                        -0.0858216975104974,
                        -0.05347383524600613,
                        -0.008198189281807182,
                        -0.0522721328023151,
                        -0.00817231604020124,
                        -0.20908842907103728,
                        0.05399981383746976,
                        0.0379799341841589,
                        0.033189464706683526,
                        0.024030043033631654,
                        -0.08984469644830208,
                        0.3759463628294915,
                        0.06318958202855968,
                        1.0762596021302884,
                        0.10275457770450734,
                        -0.36460845318312995,
                        0.13542883208627712,
                        -2.2958024806975934,
                        1.0138503452289274,
                        -0.4073058816078908,
                        0.3864690128740321
                    ],
                    [
                        -0.08687477900738025,
                        -0.03841703432237165,
                        0.20440392088429682,
                        -0.04510272663579106,
                        -0.06115435025115244,
                        0.06031138692783471,
                        0.17038065071046637,
                        -0.1518503493908726,
                        -0.13706445731205444,
                        0.05627431108470881,
                        0.19149465900832738,
                        -0.02061853199284933,
                        0.13998778947654347,
                        0.1451766294499942,
                        -0.03450555053996647,
                        0.0033068329436713242,
                        0.43616225805058156,
                        -0.03311993685585997,
                        -0.20372703472104545,
                        0.17105501893723302,
                        1.002455154503511,
                        0.16303236028828721,
                        0.0411092881246684,
                        0.43236396793413207,
                        1.2317540776246663,
                        -0.2510944737680417,
                        -0.46729233807721443,
                        0.6661625200526877,
                        0.6494053766127174,
                        -1.3393549110009446,
                        0.6996707547771187,
                        -2.293251035514766
                    ]
                ],
                "biases": [
                    -1.2211238287970683,
                    -1.347104351471716,
                    -1.4355259242959388,
                    -1.4813085372491226,
                    -1.4300113218606985,
                    -1.7876754887096429,
                    -1.6181330054871395,
                    -1.1557470663609042
                ]
            },
            {
                "n": 8,
                "m": 8,
                "weights": [
                    [
                        0.03691832986838371,
                        -1.562125309487825,
                        -0.3897128232908114,
                        0.25855831206627133,
                        0.24386007146340732,
                        -0.8582607341797521,
                        -1.0956688244117847,
                        0.5372846933399911
                    ],
                    [
                        0.13437622684228145,
                        0.20443667714790242,
                        -0.7123226380669027,
                        0.14930554650874972,
                        -1.0868016726237457,
                        0.3309801367988509,
                        -1.9997668659877688,
                        -0.0012731718281141144
                    ],
                    [
                        -0.12105334292236432,
                        0.6016278204833301,
                        -0.011315706901819367,
                        -0.24034411942681358,
                        0.23332855452529416,
                        -0.07716554891735769,
                        -0.6473689434160328,
                        -0.8641970649815078
                    ],
                    [
                        -0.2873858566241529,
                        0.2907761085000045,
                        0.17259769195952407,
                        -2.2643584428584314,
                        0.2172398564085068,
                        -0.4205229169199263,
                        0.47359850500929024,
                        0.4452507722970911
                    ],
                    [
                        -0.13922780128718334,
                        0.3326990828553089,
                        -0.9198879690282713,
                        -0.2967363029449807,
                        -0.019841908024827805,
                        -1.1354949639213188,
                        0.5775608414418187,
                        -0.20046691443730252
                    ],
                    [
                        -0.7690179833457627,
                        -0.04171074301650295,
                        -0.3756140086991039,
                        -0.12800810324453255,
                        0.005912977853212419,
                        0.24951561023580282,
                        0.3655559406641238,
                        -1.5492710085106087
                    ],
                    [
                        -0.8399119863380548,
                        -0.5187701277841649,
                        0.19603750158955013,
                        0.012528328948883725,
                        0.5378847763438979,
                        -1.6437560266983497,
                        -2.1185250837980387,
                        0.0018778757065731483
                    ],
                    [
                        -0.17562560290827822,
                        0.4269551193982534,
                        -0.17858282959927418,
                        -0.017030691551082694,
                        -1.5149794647974932,
                        -1.5516407328326924,
                        -0.34268018135360817,
                        0.09550261628378462
                    ]
                ],
                "biases": [
                    0.6667290968119559,
                    -0.034080193038175326,
                    -0.7141562192287861,
                    0.013991015545572704,
                    -0.07380394046519087,
                    0.7407995780223928,
                    1.3386922799592662,
                    1.1315371575642585
                ]
            },
            {
                "n": 83,
                "m": 8,
                "weights": [
                    [
                        -0.3599732541963912,
                        -0.18477035161940278,
                        -0.09404071284443336,
                        -0.475808205942326,
                        -0.6185260967019106,
                        -0.6818368170641653,
                        -0.18254316621993338,
                        -0.14084200395843233
                    ],
                    [
                        0.6810261372102802,
                        0.5255993784378382,
                        -0.2527476016239025,
                        -0.6940235351850661,
                        -0.2808448623098776,
                        -0.36710167257077686,
                        -0.5869132038713286,
                        -1.0027730012418337
                    ],
                    [
                        0.5848345705197723,
                        0.5479395649830194,
                        -0.23294921231364718,
                        -0.765968709542844,
                        -0.6411055205275832,
                        -0.32467751061368233,
                        -0.46281088497757006,
                        -0.5870939127290749
                    ],
                    [
                        0.5032186585640862,
                        -0.10763374526730803,
                        0.053769804804658296,
                        -0.8101891366957803,
                        0.06574189153753736,
                        0.022750601487000605,
                        -0.4138335280586509,
                        0.22935782502646015
                    ],
                    [
                        -0.2816681578978242,
                        -1.3612223198062738,
                        0.07065652953170493,
                        1.5374097619574034,
                        0.9396486049238353,
                        -0.3412515573539164,
                        1.0239128444200867,
                        0.6889720938580897
                    ],
                    [
                        -0.34107072744423367,
                        -0.20042293757378105,
                        -0.3237178477486551,
                        -0.6818068883096904,
                        -0.6219451391976276,
                        -0.7540310400470737,
                        -0.33873011193017855,
                        -0.4058186066854732
                    ],
                    [
                        0.4289445306231251,
                        0.21523627863398748,
                        0.23431088912600936,
                        -0.19405739732942004,
                        -0.5375283428343217,
                        -0.17054121058886387,
                        -0.6528886748098075,
                        -0.37123006262755415
                    ],
                    [
                        0.43655750511328956,
                        0.39442114331532135,
                        -0.2804288452883451,
                        -0.5505261420123351,
                        -0.15082857529737573,
                        0.1401382598551693,
                        -0.42036450034801326,
                        -0.39944127822760905
                    ],
                    [
                        0.758762480927395,
                        0.5425045128469907,
                        -0.04330786481230143,
                        -0.899938336761275,
                        -0.4395868759907589,
                        0.4248269314567463,
                        -0.6482747607208367,
                        -0.4049964709912657
                    ],
                    [
                        0.6515396756492066,
                        0.35933332313612903,
                        0.15877176527565265,
                        -0.608599958164664,
                        -0.4422917670645288,
                        -0.30127568316726433,
                        -0.412702861051946,
                        -0.15951224022760588
                    ],
                    [
                        0.4656478664925455,
                        0.3167016852731833,
                        0.015401969232155885,
                        -0.10342825997398437,
                        -0.2747741073501803,
                        -0.3527215803185476,
                        -0.5136603982500484,
                        -0.26008217262970285
                    ],
                    [
                        0.7929666699160554,
                        0.2964186529478815,
                        0.19786833403881288,
                        -0.588619866615591,
                        -0.39738280962916,
                        -0.020718431931929838,
                        -0.3973318434409929,
                        -0.32932129753188294
                    ],
                    [
                        0.016902107622800155,
                        0.1217912896851344,
                        -0.081849386871264,
                        -0.7015196696335954,
                        -0.43476205720602906,
                        -0.6228601235712207,
                        -0.14401710492038916,
                        -0.20261202043383922
                    ],
                    [
                        0.7015253932250168,
                        0.6193362729974589,
                        -0.2310254124578478,
                        -0.7330803484649957,
                        -0.5536499394794896,
                        0.23106376131828057,
                        -0.525924909782897,
                        -0.5317311728964369
                    ],
                    [
                        0.041544932729044554,
                        0.058858302036655444,
                        -0.18888993162087267,
                        -0.3618195840983719,
                        0.13189724467778285,
                        -0.22400218772325026,
                        -0.5725827793569523,
                        -0.057771058249646165
                    ],
                    [
                        0.7419575203513252,
                        0.5245326866575218,
                        -0.292584841531741,
                        -0.539796390381989,
                        -0.44482061486902186,
                        -0.5497794157916976,
                        -0.42169141112163433,
                        -0.2838559335003749
                    ],
                    [
                        0.3321770553831001,
                        0.19609748300118363,
                        -0.056023782201375084,
                        -0.8017854713867879,
                        -0.4480096965178108,
                        0.2057813525124822,
                        -0.3426874860312333,
                        -0.2795013314331626
                    ],
                    [
                        0.33421198606363395,
                        0.436228784748211,
                        0.01197101679217834,
                        -0.2008086757055042,
                        -0.3065282096140841,
                        0.3328484478116049,
                        -0.43724406429561496,
                        -0.3606786606244913
                    ],
                    [
                        0.2648797700771048,
                        -0.10482573188251373,
                        -0.053827489059393954,
                        -0.575775628209523,
                        -0.48368945653322365,
                        -0.5083783673994643,
                        -0.05633194323328446,
                        -0.38944446778617364
                    ],
                    [
                        -0.20445144249311195,
                        0.9480701941525597,
                        0.10727654946702475,
                        1.592753944220955,
                        0.9550253498246953,
                        -0.4524489109605532,
                        0.855673025747595,
                        0.2611203465644245
                    ],
                    [
                        -0.2755703884155955,
                        0.30867851770640636,
                        -0.04646259933893275,
                        0.2426383323963171,
                        1.119599420531507,
                        0.9130057304190643,
                        0.22046767434047587,
                        -0.1118459072250142
                    ],
                    [
                        -0.2627386941914589,
                        -0.34096592153394784,
                        0.4970156028903709,
                        0.3526616644490487,
                        0.8015894417940806,
                        1.3276493498406834,
                        0.9379591650220995,
                        1.4106651256576768
                    ],
                    [
                        0.5716808185772871,
                        0.5647763205251265,
                        -0.2758024220763347,
                        -0.43243268065379514,
                        -0.27348596923340057,
                        0.06078112263170224,
                        -0.6348810576920858,
                        -0.6913041262275441
                    ],
                    [
                        0.7158964416682455,
                        0.4740634505078858,
                        0.11363749234327754,
                        -0.4410257166064413,
                        0.0058971695632867496,
                        -0.6019924160389275,
                        -0.7949700784479266,
                        -0.31814218878615813
                    ],
                    [
                        0.64402548822603,
                        0.34412591199093157,
                        -0.3034070830142271,
                        -0.4253811563212448,
                        -0.3167359619561136,
                        -0.10655457075176292,
                        -0.4547321233088822,
                        -0.6101223260667245
                    ],
                    [
                        0.48397202444081405,
                        0.06528784321837354,
                        0.14284083865341085,
                        0.5597008496157931,
                        0.6554901439385071,
                        1.077166749095335,
                        0.6141481694193135,
                        1.456870495546349
                    ],
                    [
                        0.25402443053454193,
                        -0.5025943027413761,
                        -0.5008046313418124,
                        0.7295427639690522,
                        0.7657995172031921,
                        0.7295655640390624,
                        -0.28940349636982804,
                        0.8721301744040284
                    ],
                    [
                        -0.18609489709473578,
                        -0.2041228337285478,
                        0.12421577853519761,
                        -0.5156710030671003,
                        -0.8020765559178328,
                        -0.3861142677812681,
                        -0.23969317788253752,
                        -0.17438734292293595
                    ],
                    [
                        -0.5775294752469193,
                        -0.7049657153283163,
                        0.2147679482614399,
                        1.2202856411319307,
                        -0.06160229638281491,
                        -0.12302913302364593,
                        1.0159029607934429,
                        0.3475301306607047
                    ],
                    [
                        1.0397615250659755,
                        -0.5564046856762551,
                        0.5996527856289795,
                        0.3253257469848123,
                        1.075893273773904,
                        1.0548957244304182,
                        0.4515950128055223,
                        -0.472447464236028
                    ],
                    [
                        -0.3422754234612961,
                        -0.17786496148585892,
                        0.2021365816140876,
                        1.069742560861827,
                        0.5913492618170669,
                        0.9756061571642132,
                        0.7619577496279931,
                        0.3077123730934611
                    ],
                    [
                        0.021926002231722353,
                        0.16741881359397884,
                        0.29220312515697555,
                        0.58321864299752,
                        0.867611203553206,
                        0.6504497412973572,
                        1.0914106522898268,
                        1.4962396618012022
                    ],
                    [
                        0.38955266400715094,
                        -0.5720730003582045,
                        0.7781256451914315,
                        0.4813615735318103,
                        0.9522329121239079,
                        1.1264422472848277,
                        0.14047974187960116,
                        0.714141471627075
                    ],
                    [
                        0.1115618489120638,
                        0.2743890859274525,
                        0.2549398361160679,
                        0.47923948670881045,
                        0.5972800376411015,
                        0.7108332526058346,
                        0.8516425202397004,
                        1.3400700529354277
                    ],
                    [
                        -0.3825698640253858,
                        -0.7227653072491023,
                        -0.2642876055036446,
                        1.0270143233902702,
                        1.1039299120131996,
                        1.0102188037449829,
                        0.17624438089368621,
                        -0.3510348245734328
                    ],
                    [
                        -0.8766248231113462,
                        -0.21224548274396332,
                        0.7873143524297677,
                        1.2641493825334151,
                        0.5470347967696155,
                        0.5388938868894425,
                        0.13071368024761873,
                        -0.7776213798506361
                    ],
                    [
                        -0.5640441470741996,
                        -0.3198940475923725,
                        0.44944817584535895,
                        1.1989137338572522,
                        -0.08154585519793725,
                        -0.4492446643243326,
                        0.8894650946962694,
                        0.538088799820392
                    ],
                    [
                        0.21108548275675154,
                        0.3892659405798385,
                        0.2155508747511376,
                        -0.5447300204181317,
                        -0.43842744396763533,
                        0.1510004203054086,
                        -0.511007652197862,
                        -0.21865378964461202
                    ],
                    [
                        0.47693104025360367,
                        -0.11939052178788634,
                        -0.1387674867424971,
                        0.478629629111355,
                        1.4531368352658751,
                        1.2149459129643116,
                        0.7745664786373971,
                        1.5043866344183916
                    ],
                    [
                        -1.206836289435832,
                        -0.3196322627775738,
                        0.5644600991554628,
                        0.5657545173163814,
                        1.042399797533187,
                        1.2584073502838624,
                        1.1460675291374771,
                        -0.4682849122759234
                    ],
                    [
                        -0.4315515676949539,
                        -0.25976627765655874,
                        -0.21115447750704533,
                        -0.5839216101587656,
                        -0.4090462088252038,
                        -0.6749134453450152,
                        -0.45858498913950835,
                        0.04571866131146813
                    ],
                    [
                        0.8361045622400776,
                        0.5142887377417634,
                        -0.7100418122674572,
                        0.5347002879216053,
                        0.026069772377525908,
                        1.0215722707866142,
                        1.0409557176687565,
                        1.0673984420365406
                    ],
                    [
                        0.19313537383608897,
                        0.29479129018364775,
                        0.03131998138963721,
                        0.33913745080900054,
                        0.5997679585920387,
                        0.8723168071662075,
                        0.6598261160425914,
                        1.2695107356046338
                    ],
                    [
                        -1.322006808651238,
                        -0.8971084332615343,
                        0.06143451725527267,
                        0.23171522445290443,
                        1.0395809160921679,
                        1.0784725853115935,
                        0.17539914093630588,
                        0.34365902039079876
                    ],
                    [
                        0.5126947032541825,
                        -0.1452822500422797,
                        0.3008891956000535,
                        0.651359686355935,
                        0.8334267200666573,
                        0.9245141789908158,
                        0.15004967680193726,
                        0.09086517838291823
                    ],
                    [
                        0.41614348104445154,
                        -0.03315274427345875,
                        0.3659231866788777,
                        0.7002706047894118,
                        0.8084984709958535,
                        1.0914390235038813,
                        0.578711392605714,
                        0.3456600587129188
                    ],
                    [
                        -0.11688047548793322,
                        0.05742751052719587,
                        -0.1706321251365842,
                        0.7231154347950569,
                        1.044557445886892,
                        1.1313931406056232,
                        0.48228182723411045,
                        0.5642334400384565
                    ],
                    [
                        -0.33033489555709533,
                        0.0470562984078242,
                        -0.04057983148805475,
                        -0.062236801726204154,
                        1.798230407389078,
                        0.971970853122189,
                        0.4806617618182449,
                        0.0768682926952945
                    ],
                    [
                        -0.46972755581017583,
                        -0.05416307602772664,
                        -0.15973254019270358,
                        -0.5408525532773594,
                        -0.7108847185881481,
                        -0.35296468384169666,
                        -0.13756352997218044,
                        0.028244391994875436
                    ],
                    [
                        -0.3909093175321406,
                        -0.04648476038642624,
                        -0.2533352575959812,
                        -0.48001479315765083,
                        -0.7712168522948497,
                        -0.7386706374501462,
                        -0.10242360952812207,
                        -0.2420146603623618
                    ],
                    [
                        0.5081193504580405,
                        0.5245213116706471,
                        -0.08055957521162994,
                        0.5509133510474719,
                        1.3275105213971734,
                        0.9926504525838061,
                        -0.1290171205234932,
                        0.6930880509705573
                    ],
                    [
                        0.3866413033450726,
                        0.13552324161403995,
                        -0.4750581414228853,
                        0.40967057124271344,
                        1.2765757093067394,
                        0.8653560008192325,
                        0.4265532566258089,
                        0.27417800696694805
                    ],
                    [
                        -0.6268144736123257,
                        -0.38557870898053026,
                        0.3098370258054741,
                        1.2100540734511023,
                        -0.23197111763583128,
                        -0.5730485736877666,
                        0.8473024621582714,
                        0.2811829085536894
                    ],
                    [
                        -0.46683604616956303,
                        0.10316552470331239,
                        0.6799837819994514,
                        0.18915272960918117,
                        0.8615444347694295,
                        0.33839287034045906,
                        -0.28978426718875866,
                        0.23496656669407065
                    ],
                    [
                        -0.10899037618533358,
                        1.0637006342588384,
                        0.28620979196972024,
                        1.570849798233703,
                        -0.1904357837974558,
                        -0.9740116152656654,
                        0.36201577274260044,
                        -0.29511198460086197
                    ],
                    [
                        0.6908771198879327,
                        0.050074254719043,
                        -0.15428928035871897,
                        0.15486106834054003,
                        0.9226314484044482,
                        0.31204770753648636,
                        -0.005097479977467143,
                        0.2322839275723121
                    ],
                    [
                        -0.43966655446134695,
                        -0.27603698486159667,
                        -0.16143660458298634,
                        0.702268322461427,
                        -0.5225825366859509,
                        -0.753151575848413,
                        0.4826913123853048,
                        -0.17083275486485813
                    ],
                    [
                        0.03198425964148965,
                        0.44390920294647557,
                        0.13995955175463456,
                        -0.7391302410688411,
                        -0.8139975542496746,
                        0.0626006266351071,
                        -0.21316507016812244,
                        -0.2654579939644656
                    ],
                    [
                        -0.996334893366386,
                        -0.5418016000360532,
                        -0.7337937573879538,
                        -0.07788465324071779,
                        1.4451524870906434,
                        -0.20238603301888936,
                        -0.9976111362671527,
                        0.1017142442379856
                    ],
                    [
                        0.14958265531332182,
                        -0.044810743238918496,
                        0.3988333662527628,
                        1.1874836640923399,
                        0.5997551999736109,
                        -0.6016001667466458,
                        0.4374605170562475,
                        0.01766436705483471
                    ],
                    [
                        0.5212391968383663,
                        0.5253689453014481,
                        -0.3328737769715707,
                        -0.8146032472889952,
                        -0.3924262623879354,
                        0.04242234855907366,
                        -0.5026860487081598,
                        -0.48605416497712073
                    ],
                    [
                        -0.46768385502050974,
                        -0.3323137783772664,
                        -0.24097572072896462,
                        -0.47088154505562885,
                        -0.5913482970895948,
                        -0.4992859304186029,
                        -0.3674318992408594,
                        -0.0368417095911943
                    ],
                    [
                        -0.1388001230998287,
                        0.00012119015367972316,
                        -0.09061320635915993,
                        -0.4220282888719319,
                        -0.7607241654665883,
                        -0.6421535031864091,
                        -0.20619335098032218,
                        -0.02732707741163062
                    ],
                    [
                        -0.3463767442014439,
                        -0.3925699828633495,
                        0.034531872217913824,
                        0.4760452354601723,
                        -0.4968393319378726,
                        -0.7393539697843922,
                        0.2529739151972071,
                        -0.14792039268496282
                    ],
                    [
                        -0.5165596037642635,
                        0.16984183866122415,
                        -0.3311027893811573,
                        -0.40806021573243856,
                        -0.5791463980247799,
                        -0.6071636297060855,
                        -0.20934991790308388,
                        -0.18911375159951882
                    ],
                    [
                        -0.3029029011420948,
                        -0.39562740229694254,
                        -0.16634722702439275,
                        0.4002649839664007,
                        0.5937426666337515,
                        0.36671232541109094,
                        -0.23980681035264476,
                        -0.40448062740768986
                    ],
                    [
                        0.6418333576655031,
                        0.26226148914918357,
                        -0.1516295519380839,
                        -0.5145642006317618,
                        -0.5886894885587369,
                        0.09030829415623777,
                        -0.5519305516670079,
                        -0.5004205228656777
                    ],
                    [
                        -0.21395900418005329,
                        -0.088626340516286,
                        -0.14526884359744416,
                        -0.7730629748309801,
                        -0.639204168022558,
                        0.22254059546519397,
                        -0.2771647586108913,
                        -0.152233241021903
                    ],
                    [
                        -0.5190183743906259,
                        -0.41421371183316996,
                        -0.1260116383910048,
                        0.8978272460917178,
                        0.35030757711618266,
                        -0.8003761680933311,
                        0.1112809891154707,
                        0.3569657305213886
                    ],
                    [
                        -0.31245235134853283,
                        -0.32429119731382566,
                        -0.14986736920292018,
                        -0.38527847733733517,
                        -0.6407507801987188,
                        -0.5526789604141616,
                        -0.1910560289259742,
                        0.03753760090600884
                    ],
                    [
                        -0.2526750349631184,
                        -0.09694095535425103,
                        0.2908173302554111,
                        0.7528888182698131,
                        -0.23599009380511957,
                        -0.5764027816200077,
                        0.44079469013316525,
                        -0.06501313647277347
                    ],
                    [
                        -0.3353433984682182,
                        -0.20664001542410745,
                        -0.13458155980887612,
                        -0.5290805279429792,
                        -0.6671140479645118,
                        -0.5205567030904755,
                        -0.18462952551358766,
                        -0.23927609573792272
                    ],
                    [
                        -0.5343459652903263,
                        0.052483080043679485,
                        -0.3036439451490726,
                        -0.4034780760227704,
                        -0.6381488559553634,
                        -0.6566039403227317,
                        -0.4385288349766163,
                        -0.2111636981925196
                    ],
                    [
                        -0.414339158946115,
                        -0.19492381319823332,
                        -0.2619003575789831,
                        -0.3530939163619405,
                        -0.6001124445179272,
                        -0.34799877219322906,
                        -0.3792653185169555,
                        -0.1996132605980886
                    ],
                    [
                        -0.2635798099152645,
                        -0.29400300617059466,
                        -0.0927694315583381,
                        -0.6474875384765859,
                        -0.6021669713928097,
                        -0.6661675945683271,
                        -0.2224277184172907,
                        -0.29939194748597736
                    ],
                    [
                        -0.3173595804458409,
                        -0.021575172645714805,
                        -0.12841550977012783,
                        -0.37239567976408794,
                        -0.568716957878941,
                        -0.6756448924081707,
                        -0.3251242097041319,
                        -0.20429991600900035
                    ],
                    [
                        -0.1697376084008358,
                        -0.014388372539055753,
                        0.13128479552396077,
                        -0.624120549878739,
                        -0.7093883569355033,
                        -0.6381284215558966,
                        -0.052697238749299664,
                        -0.15531737696132444
                    ],
                    [
                        -0.22384587547765664,
                        -0.05841778388583508,
                        -0.1742898643488445,
                        -0.3866836566967353,
                        -0.8767357384409398,
                        -0.6846922041492579,
                        -0.41009693396121494,
                        -0.1464174498952867
                    ],
                    [
                        -0.42245145354666747,
                        -0.21988778322234112,
                        -0.14542373831938385,
                        -0.44243017249443806,
                        -0.6827305968589681,
                        -0.6073179274570266,
                        -0.2551667315834935,
                        0.08544636512316255
                    ],
                    [
                        -0.47947245325417637,
                        0.03338501667385209,
                        0.14375068332984825,
                        -0.48992577265934945,
                        -0.5863081606018962,
                        -0.7851292710545755,
                        -0.3500958486623188,
                        -0.019709903386441303
                    ],
                    [
                        -0.4660089690815367,
                        -0.09446274591680424,
                        -0.11986393898931713,
                        -0.556505554116063,
                        -0.7702586528250384,
                        -0.7622598143851069,
                        -0.05974036818917512,
                        -0.1411765656132488
                    ],
                    [
                        -0.2823648783712483,
                        -0.3646958470133604,
                        -0.19298093615879755,
                        -0.4996550660169149,
                        -0.7403777566816538,
                        -0.56053676513517,
                        -0.06367594572663132,
                        -0.18150763385260035
                    ],
                    [
                        -0.1355725171888637,
                        -0.09544931355773499,
                        -0.3619264061622528,
                        -0.4014867312022551,
                        -0.686594303348568,
                        -0.7205338855568902,
                        -0.23883049863174352,
                        -0.13791085907619757
                    ]
                ],
                "biases": [
                    -0.7017135640359735,
                    0.32005893037081334,
                    -0.2601016888764382,
                    -0.253970403526516,
                    2.136739260193813,
                    -0.3491857888500204,
                    -0.4058706141550533,
                    -0.10234239762713516,
                    0.22376923204094826,
                    -0.20046739956931367,
                    -0.08885459222887317,
                    -0.5446218065127282,
                    -0.848467507797629,
                    -0.025451710108228852,
                    0.03442106055719815,
                    -0.3906672187443063,
                    -0.17445139130163903,
                    0.24194746857331093,
                    -0.5418933246062178,
                    0.014841396345133392,
                    0.7605351390351108,
                    0.334471873378438,
                    -0.03637983811537905,
                    0.318831331919368,
                    -0.06276916710852547,
                    0.8432265589176897,
                    2.6927815191335776,
                    -0.5554725517028071,
                    1.1581594212742903,
                    -0.1716445998868076,
                    1.8708913044042843,
                    1.1853082987663177,
                    1.788798437462329,
                    1.216736549974935,
                    1.8177344292554032,
                    2.034317618432904,
                    0.1383621543932696,
                    -0.3368395688212412,
                    -0.5013983208894256,
                    -0.011861707684465681,
                    -0.627034298191684,
                    -0.21000761235232734,
                    1.529416883635995,
                    1.0243295272086979,
                    1.3861206830740531,
                    1.890610588327245,
                    0.7075494376137267,
                    0.6803010553237836,
                    -0.6492333871305805,
                    -0.49068557068273627,
                    -0.18567186535017516,
                    1.303224160544824,
                    -0.3665971420737213,
                    -0.37472061653237626,
                    0.4079485326641227,
                    -0.18106426949316684,
                    -0.39574120508062655,
                    -0.4002523888930077,
                    0.49379360646025966,
                    -0.9022602350441042,
                    -0.034443900249820116,
                    -0.7116616843530966,
                    -0.6944538901725222,
                    -0.43776310750449426,
                    -0.7070308018315519,
                    -0.8178929210623476,
                    -0.4961974048302208,
                    -0.46669930575532814,
                    -0.9629637765670972,
                    -0.8549049395746415,
                    -0.47611370932604236,
                    -0.81284619033134,
                    -0.6131710457222372,
                    -0.7779314815526917,
                    -0.5468029008831896,
                    -0.7904789278118102,
                    -0.9481597986307898,
                    -0.5371365656546341,
                    -0.6207830907134486,
                    -0.6237228030005239,
                    -0.4721638293569051,
                    -0.7983448088302553,
                    -0.7906011442700454
                ]
            }
        ]
    },
    "tokenizer": {
        "idtochar": {
            "0": "<PAD>",
            "1": "T",
            "2": "H",
            "3": "E",
            "4": " ",
            "5": "X",
            "6": "P",
            "7": "D",
            "8": "I",
            "9": "O",
            "10": "N",
            "11": "F",
            "12": "U",
            "13": "M",
            "14": "R",
            "15": "Y",
            "16": "C",
            "17": "L",
            "18": "K",
            "19": "\n",
            "20": "b",
            "21": "y",
            "22": "B",
            "23": "A",
            "24": "S",
            "25": "o",
            "26": "r",
            "27": "V",
            "28": ",",
            "29": "k",
            "30": "s",
            "31": "e",
            "32": "l",
            "33": "i",
            "34": "n",
            "35": "d",
            "36": ".",
            "37": "G",
            "38": "u",
            "39": "g",
            "40": "4",
            "41": "h",
            "42": "a",
            "43": "v",
            "44": "c",
            "45": "t",
            "46": "m",
            "47": "f",
            "48": "1",
            "49": "3",
            "50": "w",
            "51": "p",
            "52": ";",
            "53": "j",
            "54": "-",
            "55": "q",
            "56": ":",
            "57": "J",
            "58": "x",
            "59": "\u2019",
            "60": "W",
            "61": "&",
            "62": "0",
            "63": "?",
            "64": "2",
            "65": "z",
            "66": "\u2018",
            "67": "(",
            "68": ")",
            "69": "6",
            "70": "!",
            "71": "7",
            "72": "8",
            "73": "Q",
            "74": "Z",
            "75": "5",
            "76": "9",
            "77": "[",
            "78": "]",
            "79": "\u201c",
            "80": "\u201d",
            "81": "'",
            "82": "*"
        },
        "chartoid": {
            "<PAD>": 0,
            "T": 1,
            "H": 2,
            "E": 3,
            " ": 4,
            "X": 5,
            "P": 6,
            "D": 7,
            "I": 8,
            "O": 9,
            "N": 10,
            "F": 11,
            "U": 12,
            "M": 13,
            "R": 14,
            "Y": 15,
            "C": 16,
            "L": 17,
            "K": 18,
            "\n": 19,
            "b": 20,
            "y": 21,
            "B": 22,
            "A": 23,
            "S": 24,
            "o": 25,
            "r": 26,
            "V": 27,
            ",": 28,
            "k": 29,
            "s": 30,
            "e": 31,
            "l": 32,
            "i": 33,
            "n": 34,
            "d": 35,
            ".": 36,
            "G": 37,
            "u": 38,
            "g": 39,
            "4": 40,
            "h": 41,
            "a": 42,
            "v": 43,
            "c": 44,
            "t": 45,
            "m": 46,
            "f": 47,
            "1": 48,
            "3": 49,
            "w": 50,
            "p": 51,
            ";": 52,
            "j": 53,
            "-": 54,
            "q": 55,
            ":": 56,
            "J": 57,
            "x": 58,
            "\u2019": 59,
            "W": 60,
            "&": 61,
            "0": 62,
            "?": 63,
            "2": 64,
            "z": 65,
            "\u2018": 66,
            "(": 67,
            ")": 68,
            "6": 69,
            "!": 70,
            "7": 71,
            "8": 72,
            "Q": 73,
            "Z": 74,
            "5": 75,
            "9": 76,
            "[": 77,
            "]": 78,
            "\u201c": 79,
            "\u201d": 80,
            "'": 81,
            "*": 82
        }
    },
    "embedding": {
        "lookuptable": [
            [
                0.02788535969157674,
                -0.09499784895546662,
                -0.04499413632617615,
                -0.05535785237023545
            ],
            [
                0.2857613408398101,
                -0.44541009331645026,
                0.6934765799309531,
                -1.570601388390721
            ],
            [
                0.008659714754415591,
                -1.4606246609529274,
                -0.6227336353633086,
                1.7848669529063192
            ],
            [
                -0.22914340700748753,
                3.453395618274877,
                -0.19209343042479143,
                -2.495033682296244
            ],
            [
                2.627402832120618,
                0.8560212217932746,
                -2.673873316276756,
                0.46362873488052064
            ],
            [
                0.12138057791387478,
                -0.017728268510212943,
                0.029721599209919493,
                -0.16403336133423793
            ],
            [
                -1.2058951185404656,
                -0.03690921176799246,
                -1.9865581912606711,
                -2.553467771478567
            ],
            [
                -1.6483896016224155,
                0.6058206414532135,
                -1.6418973621608925,
                -2.85253685029469
            ],
            [
                -1.0574930984727924,
                2.097153783190571,
                2.4332582256873185,
                -1.6076945768842408
            ],
            [
                -0.6344808748865318,
                1.4547150604269725,
                0.40389407661836974,
                -0.58161863753299
            ],
            [
                -0.6997723417883651,
                -0.9431970920953343,
                -0.10155904619328526,
                -1.6577885731481063
            ],
            [
                -0.18414015090675587,
                0.22849456169166144,
                0.03450337696928532,
                -1.209954400932339
            ],
            [
                -0.4632796865692406,
                1.545061916957599,
                -0.045022208190104954,
                -0.24471896432115267
            ],
            [
                -2.6915386900498626,
                -0.5407097976927983,
                0.8426110526031532,
                -1.0116244875797522
            ],
            [
                -0.21582545432239778,
                1.3326943152890112,
                0.26919614383611934,
                -2.8609500416752165
            ],
            [
                -0.2721742575128896,
                -1.0653807317774857,
                0.7412360181562369,
                -0.3397412217284286
            ],
            [
                -0.2574492700883408,
                -0.12349129909052615,
                -1.8904917992010157,
                -1.9537025834821802
            ],
            [
                -0.9533189112735672,
                0.16418150951217536,
                -3.2132661547300527,
                -3.4375802019182116
            ],
            [
                0.0010863259486747542,
                1.3033187965647242,
                -1.266830080318524,
                -1.4940490206348813
            ],
            [
                2.457175617649945,
                0.7314151717342346,
                -2.7476618364198293,
                -0.3056020558042787
            ],
            [
                -0.816590836737756,
                -1.347556642210374,
                -1.0919160548181663,
                2.1519694958941846
            ],
            [
                -0.3410683742410016,
                -1.296701427580611,
                2.016497675642433,
                -0.09711731419579434
            ],
            [
                -1.0399839575617413,
                -0.33454475429496483,
                -1.2341994303973474,
                -0.46475711736700015
            ],
            [
                0.42332616083439556,
                3.347085973122389,
                1.1296064548626272,
                0.49180054700021286
            ],
            [
                1.607276210752622,
                0.4280295982826638,
                1.3501203069471144,
                -0.2397250569578378
            ],
            [
                -2.5558549082645503,
                1.3357851152498363,
                -0.43403045534461987,
                2.310374273935555
            ],
            [
                -1.5899382453598876,
                -2.2052227993586055,
                -0.3528015773666891,
                -0.565928953707298
            ],
            [
                -0.24136682240493085,
                -0.13984839155973558,
                -0.12757173008768388,
                -0.39498923270912495
            ],
            [
                1.5916877599165236,
                -1.3518626489480763,
                4.3031745902115714,
                -2.692418785177502
            ],
            [
                0.3443886374101793,
                0.6998337736258328,
                1.9282958162798347,
                0.6980117596340528
            ],
            [
                0.5038578058251033,
                -0.21340005531002734,
                1.2428889517993562,
                -0.1431093792204425
            ],
            [
                -1.565035706095715,
                1.0801736655042422,
                0.19944161549765735,
                -0.3963818771723182
            ],
            [
                -1.451289975077433,
                -2.232891629465524,
                0.06278843183970685,
                1.0474403218397101
            ],
            [
                -1.3506073337120912,
                3.5331729328702397,
                -0.20215084787894672,
                1.3438718059346866
            ],
            [
                -0.3851141604544353,
                -0.7012076629142219,
                0.7005825666862118,
                1.7652978327461264
            ],
            [
                -0.6127583919798002,
                -1.3091154623497772,
                0.8839700193346479,
                -0.018940492816664222
            ],
            [
                3.9633953948787157,
                -0.08316598598262813,
                3.1015800296802776,
                -6.441837255836705
            ],
            [
                -0.5289680159456766,
                -0.2356343460341677,
                -1.7385069366071955,
                -1.5891550729468227
            ],
            [
                -1.0537864526775855,
                2.376200141206131,
                0.13587311521546577,
                0.8677255488842236
            ],
            [
                -0.6662493664350898,
                -0.4146969651940491,
                0.1914991846494744,
                -1.2752033016346178
            ],
            [
                -0.32089623684121193,
                0.31644152386589364,
                0.2470614509010775,
                -0.08372895586716364
            ],
            [
                1.6578510134447793,
                -1.8702416367681953,
                1.2486085484998979,
                1.5182405796114484
            ],
            [
                -0.4911968298190135,
                2.5014888353938813,
                0.8888555491482101,
                1.2422462950995732
            ],
            [
                -1.0697146657473156,
                -3.9184054419226753,
                -2.6114889174030127,
                1.05721461384933
            ],
            [
                -1.0497108134331483,
                -1.0576572584016093,
                -1.26732174945993,
                -2.318763858129907
            ],
            [
                1.3000753841600632,
                -0.4719688683685613,
                1.0691196587781342,
                -0.39739691977956143
            ],
            [
                -1.6812491178104858,
                -2.4991277482118073,
                -0.5225087704104656,
                -0.9073378491277075
            ],
            [
                -0.9391711378033951,
                -1.26955396391382,
                -0.40396736833614855,
                -0.26624885343735905
            ],
            [
                -0.8890330697037939,
                -0.01631222269619223,
                0.7299096979854494,
                0.24569994019138647
            ],
            [
                -0.2801366605305929,
                0.18825021356817492,
                0.28166178552800314,
                0.23296207026895127
            ],
            [
                0.7960412205162722,
                -1.2063676882406025,
                1.1174292652190887,
                1.3541218799368635
            ],
            [
                -0.6146626933236663,
                -0.16769358168870538,
                -0.9476860809366247,
                -0.929005679351401
            ],
            [
                1.2653088633962015,
                -1.3674268150447149,
                4.784074512202084,
                -3.2067525079482375
            ],
            [
                -2.0425150959419294,
                -2.138389846898691,
                -1.4078353121009475,
                1.048475539485431
            ],
            [
                4.092281604272817,
                0.20036645327874908,
                -0.7971147913013397,
                -2.71889698596803
            ],
            [
                -6.9660689123839825,
                -3.859525327065683,
                -6.519912954853992,
                0.6217827624597759
            ],
            [
                -0.123128896343745,
                -1.351413863916633,
                2.435450555083511,
                -1.054284449377814
            ],
            [
                -0.5313558709128203,
                -0.3846778174290026,
                -0.10117179472307557,
                -0.1402378308616314
            ],
            [
                -0.34502442297350655,
                0.19825328098752457,
                -0.04887941649490494,
                -0.26188333220060034
            ],
            [
                -1.040909083244971,
                2.032313538527366,
                1.2021371199953936,
                2.3107706794830167
            ],
            [
                -0.7215421171598576,
                0.22392670702013667,
                -0.09869547978362002,
                -1.7238426171486927
            ],
            [
                -0.5475123634689928,
                0.6624094345109908,
                0.3139756334999803,
                0.28263606301050537
            ],
            [
                -0.06561511968798976,
                0.4666619988878933,
                0.5278797271825689,
                -0.07859531390075543
            ],
            [
                1.8208351581085565,
                -0.21419270811523078,
                1.5594003394226805,
                -2.5750720884880387
            ],
            [
                -0.3383505304623816,
                0.26920208493181386,
                0.619312455307438,
                0.05018888655929901
            ],
            [
                -0.18707685078250258,
                -1.5294634669873988,
                -0.4396095260397131,
                0.19490680438370275
            ],
            [
                2.152514162704761,
                1.5305277927384924,
                -1.7883378344260314,
                -0.47396322509225003
            ],
            [
                1.8542232833390613,
                3.1483746530911834,
                -1.6805219436947305,
                0.12623547075903035
            ],
            [
                -0.35190712027545373,
                -0.9189872606950009,
                1.7234278622640087,
                0.2446373099229753
            ],
            [
                0.08526878490485704,
                -0.030319322075870743,
                0.12823004889314404,
                -0.04487331117336853
            ],
            [
                2.0918963251505347,
                -0.11118241079698708,
                1.986691810907165,
                -2.5781257268515736
            ],
            [
                -0.15482396523080738,
                0.32862146775488016,
                0.05718003627294261,
                0.03553827010991186
            ],
            [
                -0.21453829827366266,
                0.3472548873841735,
                0.08608725567260091,
                -0.045488981442535034
            ],
            [
                -1.2701210531960982,
                -0.22545501265077575,
                -0.20537121177330175,
                -0.10130444471422237
            ],
            [
                -0.09756857185731346,
                -0.08213271494725122,
                -0.10667340152396804,
                0.08174386030560872
            ],
            [
                0.15895520746410632,
                0.16957056357383454,
                0.12612202051460986,
                -0.12188759295914917
            ],
            [
                -0.0935581321769182,
                -0.10164911206841436,
                0.007966130366590237,
                0.02852223624883218
            ],
            [
                0.43722691510974415,
                0.23434796758350146,
                -0.015741732979970568,
                -0.3474180244118096
            ],
            [
                -0.07882339303851142,
                0.07334605201949146,
                0.21786105272545164,
                0.1765241939850182
            ],
            [
                0.838756045342446,
                0.49314023735522544,
                -0.16341031112284782,
                -0.2825461237313713
            ],
            [
                0.23594545723524854,
                0.2086318504585669,
                0.1413400088757729,
                -0.25411548473314377
            ],
            [
                0.019295863802255887,
                0.3371959050160197,
                0.0937100725428762,
                -0.03739340601775992
            ],
            [
                0.21822876191956422,
                0.16721808669993007,
                0.04687515238406967,
                -0.045693497665943036
            ]
        ]
    }
}