{
    "layers": [
        {
            "n": 200,
            "m": 1,
            "weights": [
                [
                    0.5359343094439788
                ],
                [
                    -0.44998582725701314
                ],
                [
                    0.4879786461786407
                ],
                [
                    0.8030318899416262
                ],
                [
                    -0.15581977403566133
                ],
                [
                    -0.5627681163371627
                ],
                [
                    -0.9463377550827737
                ],
                [
                    0.1956448290859395
                ],
                [
                    -0.5596917759515174
                ],
                [
                    0.6580415945751938
                ],
                [
                    0.527163379732069
                ],
                [
                    -0.3193015729889136
                ],
                [
                    0.8602935471799604
                ],
                [
                    -0.8144594822433926
                ],
                [
                    0.6289792519617623
                ],
                [
                    0.6118967669600137
                ],
                [
                    0.009844746439211256
                ],
                [
                    -0.24250381919637423
                ],
                [
                    0.5679812357355476
                ],
                [
                    0.6201060415973917
                ],
                [
                    0.23251747606965636
                ],
                [
                    -0.5448367002968518
                ],
                [
                    -0.8412386233786449
                ],
                [
                    -0.7978983289846194
                ],
                [
                    0.3115407710580373
                ],
                [
                    -0.26032162315288865
                ],
                [
                    -0.2424868037315318
                ],
                [
                    0.2653287048391352
                ],
                [
                    -0.6572238271697967
                ],
                [
                    -0.6721607912179135
                ],
                [
                    0.9131367305658048
                ],
                [
                    0.05334979096600795
                ],
                [
                    0.5457227520994254
                ],
                [
                    -0.5425045288921326
                ],
                [
                    -0.3696641325336896
                ],
                [
                    -0.5501981259986903
                ],
                [
                    0.612224832777124
                ],
                [
                    0.30587341162773435
                ],
                [
                    0.7322880372660499
                ],
                [
                    -0.46920835197894245
                ],
                [
                    0.23028906598486235
                ],
                [
                    0.1850259919240563
                ],
                [
                    -0.2019770753042571
                ],
                [
                    1.0113218104114494
                ],
                [
                    -0.8181593832113054
                ],
                [
                    -0.7799007625523204
                ],
                [
                    0.5679412903014803
                ],
                [
                    -0.8730025122117395
                ],
                [
                    0.9191031334833006
                ],
                [
                    0.8024423522217566
                ],
                [
                    -0.9779454763238937
                ],
                [
                    0.4313009777035301
                ],
                [
                    -0.4663963986288572
                ],
                [
                    -0.7762309754647051
                ],
                [
                    -0.12958559749064436
                ],
                [
                    0.6289945276759736
                ],
                [
                    0.0014697634049594139
                ],
                [
                    0.6654296083703454
                ],
                [
                    -0.4038380470965141
                ],
                [
                    0.3359919779903882
                ],
                [
                    0.4466646853282136
                ],
                [
                    0.6203925144626209
                ],
                [
                    -0.9996738623721177
                ],
                [
                    -0.9604994529971388
                ],
                [
                    0.7170544646302461
                ],
                [
                    -0.38438450549003494
                ],
                [
                    0.6300183613373981
                ],
                [
                    -0.8286233036420255
                ],
                [
                    -0.8616572573659261
                ],
                [
                    0.4973136918119581
                ],
                [
                    -0.07549792034226116
                ],
                [
                    -0.5128771020250389
                ],
                [
                    -0.15413983979525644
                ],
                [
                    0.08573038833386336
                ],
                [
                    -0.5974685235105666
                ],
                [
                    0.973845468320064
                ],
                [
                    -0.12284706231282122
                ],
                [
                    -0.7585854229774001
                ],
                [
                    -0.32440653791286683
                ],
                [
                    -0.5394042617067278
                ],
                [
                    -0.8587429981848701
                ],
                [
                    -0.5138905724147987
                ],
                [
                    0.5726427000154674
                ],
                [
                    -0.5250161234874375
                ],
                [
                    -0.5715950893820255
                ],
                [
                    0.8360299539472299
                ],
                [
                    -0.10748790793385049
                ],
                [
                    0.5170031276399015
                ],
                [
                    -0.8056919464436759
                ],
                [
                    -0.15240424911620867
                ],
                [
                    0.40989361376666444
                ],
                [
                    0.9617664848659134
                ],
                [
                    -0.19386608986053716
                ],
                [
                    0.7444387728902431
                ],
                [
                    -0.6193279668289217
                ],
                [
                    -0.15587905667473348
                ],
                [
                    -0.5385730913904582
                ],
                [
                    -0.14093150853890762
                ],
                [
                    0.10074330236792645
                ],
                [
                    0.9479735458844405
                ],
                [
                    0.9445763719954645
                ],
                [
                    0.7289403209124099
                ],
                [
                    -0.029630055032635588
                ],
                [
                    -0.19861576498475036
                ],
                [
                    -0.24439940792154158
                ],
                [
                    -0.4912519138857121
                ],
                [
                    -0.08986750282716253
                ],
                [
                    0.7912496754062264
                ],
                [
                    0.01406865838696514
                ],
                [
                    -0.6900129847535632
                ],
                [
                    0.9135980583803015
                ],
                [
                    0.15724232829458434
                ],
                [
                    -0.8856406172103902
                ],
                [
                    -0.012801198654225594
                ],
                [
                    -0.6474140261965899
                ],
                [
                    -0.8407129395209547
                ],
                [
                    0.15430767390408853
                ],
                [
                    -0.5299979413975541
                ],
                [
                    0.6879564662148144
                ],
                [
                    0.08835180052367808
                ],
                [
                    -0.17663251102180375
                ],
                [
                    0.09075535046331525
                ],
                [
                    -0.5913070936558708
                ],
                [
                    -0.521648480351862
                ],
                [
                    0.4289512053431258
                ],
                [
                    -0.3823143107172506
                ],
                [
                    -0.855355923265228
                ],
                [
                    0.81530242112747
                ],
                [
                    -0.8529718544093479
                ],
                [
                    -0.46724425040730977
                ],
                [
                    0.7248409442433524
                ],
                [
                    -0.2600496986714393
                ],
                [
                    0.5516477180836928
                ],
                [
                    0.2025831250891662
                ],
                [
                    0.5014820594133914
                ],
                [
                    0.6038915306423591
                ],
                [
                    0.20002123388609658
                ],
                [
                    -0.7317229417703254
                ],
                [
                    -0.7862537282510892
                ],
                [
                    -0.45497502637291604
                ],
                [
                    0.5276938678328917
                ],
                [
                    0.12159440267911589
                ],
                [
                    -0.0032376375469399805
                ],
                [
                    0.6054477677682978
                ],
                [
                    -0.15192280355582774
                ],
                [
                    -0.9922262306178861
                ],
                [
                    0.28584220780140573
                ],
                [
                    0.4397474693970575
                ],
                [
                    -0.14499603733349942
                ],
                [
                    -0.8499179259952446
                ],
                [
                    0.8529841874333511
                ],
                [
                    0.6048455453648242
                ],
                [
                    -0.7038094626871462
                ],
                [
                    -0.4244028072665539
                ],
                [
                    0.5739482449117614
                ],
                [
                    0.770362143783841
                ],
                [
                    -0.5011510650129315
                ],
                [
                    0.44762856532177586
                ],
                [
                    -0.174501278548675
                ],
                [
                    -0.7136470032471772
                ],
                [
                    0.6870901598905739
                ],
                [
                    0.61756881629916
                ],
                [
                    -0.951047386954188
                ],
                [
                    -0.37061159685274725
                ],
                [
                    0.6405872015639542
                ],
                [
                    0.5829087015645062
                ],
                [
                    0.6125964035209803
                ],
                [
                    0.607576825792443
                ],
                [
                    -0.5959138923273022
                ],
                [
                    -0.07913407913274972
                ],
                [
                    0.49444891569225297
                ],
                [
                    -0.9533901450631584
                ],
                [
                    -0.30814220685799626
                ],
                [
                    0.899575035703955
                ],
                [
                    0.14868827995815231
                ],
                [
                    1.0036261845063144
                ],
                [
                    0.9255904624729839
                ],
                [
                    0.8881831456955656
                ],
                [
                    0.7986369305050036
                ],
                [
                    -0.7824685166805874
                ],
                [
                    0.4345830790995339
                ],
                [
                    0.2458010776454929
                ],
                [
                    -0.2295608634016759
                ],
                [
                    -0.49106649444099065
                ],
                [
                    -0.9958735410969556
                ],
                [
                    0.15854116652468853
                ],
                [
                    0.3930219010808633
                ],
                [
                    -0.2714356102398609
                ],
                [
                    0.2824292496400107
                ],
                [
                    -0.4099712511407696
                ],
                [
                    0.42543775679695695
                ],
                [
                    -0.3806543418236148
                ],
                [
                    -0.1944532897208654
                ],
                [
                    -0.7458659062350592
                ],
                [
                    0.8755846284775548
                ],
                [
                    0.7354662008085499
                ],
                [
                    -0.39716393440105435
                ],
                [
                    -0.9991834631907693
                ],
                [
                    -0.15077668566972582
                ],
                [
                    0.2506775533206696
                ]
            ],
            "biases": [
                -1.6075378016481088,
                -0.5535593756757194,
                0.27547218852070515,
                -0.8894830120639932,
                -0.9407377491366081,
                0.010723409876848984,
                -0.6030218868540866,
                0.17831949467089547,
                0.1791904842655742,
                -1.0334257629262484,
                0.42394821165544005,
                -0.6892231609486419,
                -0.3501459587217502,
                -0.8066458411732707,
                0.20165136656533872,
                0.3785147485823013,
                0.9842350376702081,
                0.10360547364206721,
                0.2717149080543673,
                0.18960950724457928,
                -0.9517565227345776,
                -0.42049703806146244,
                -0.5335328422942133,
                -0.444127948809631,
                -0.34536054530652954,
                -0.5802547589988386,
                1.0019168343847575,
                0.21089001579176428,
                0.4577370399207163,
                -0.2421961079171788,
                0.24062565098346636,
                0.417758396673546,
                0.6250167335796356,
                -0.9350655577297077,
                -0.46387723120025554,
                0.9151283578745886,
                -0.2790589871275274,
                -0.22627258724708074,
                -0.05534222334222801,
                -0.5078462169089389,
                -0.690766678322585,
                0.7440999750912282,
                -0.5604781660778374,
                -0.10143472370888411,
                -0.9057305624916138,
                0.25402406486539286,
                -0.19225335404839894,
                -0.23668657174084126,
                0.040835460151601076,
                0.7670273468747743,
                0.442511853653036,
                -0.04381294722400285,
                0.281976569831906,
                -0.13123013755011717,
                0.9341982823551457,
                -0.39494634587702193,
                -0.6429913290041921,
                0.8218658071878355,
                0.27872719661117334,
                -1.0078107627289665,
                0.10754556523859664,
                -0.07758381737435036,
                -0.3507969173656352,
                0.8575743818432259,
                0.6129715560511396,
                -0.8848418645838799,
                0.9346456371139145,
                -0.02806304228514163,
                0.521329864710784,
                -0.7497017644627916,
                0.07149151709917112,
                0.6997033406615768,
                -0.5759492672019202,
                0.42731273433624384,
                -0.3768251066269428,
                0.21037817674092274,
                0.03410495381515289,
                -0.5499111285082469,
                0.177307726541633,
                -0.5599311953558024,
                0.26300931967317503,
                0.8405637723179836,
                -0.8134796765615158,
                0.3391318912223143,
                -0.7352469605665634,
                0.09206380980126426,
                0.6213870409585712,
                -0.5954006921279231,
                -0.1383788817308299,
                -0.06642295763991025,
                0.34197119906304707,
                -0.8814898408351151,
                -0.32239047330601983,
                -0.5976476644329907,
                -0.10306940399375152,
                -0.44328149723591737,
                0.8064360725466633,
                0.7437605441031692,
                -0.8989292109315886,
                0.6025246946003283,
                0.7237715215045519,
                -0.7738137009512043,
                -0.5715034112447328,
                -0.8819428624018708,
                1.035983397476781,
                0.5453702577462174,
                -0.1541587098291971,
                1.011878659016413,
                0.5226329770647636,
                -0.40702844785993075,
                0.07835726025447269,
                0.3859134603471674,
                0.1683653936754011,
                0.7066131671555802,
                0.9611505620248971,
                -0.6272573623515061,
                0.3599309623779178,
                -0.7598216122877416,
                -0.474672664994028,
                0.33139296125248846,
                0.15017676030029323,
                0.7866138184112176,
                0.43221398572318187,
                -0.20947488044084359,
                -0.5373085643113721,
                0.4882858729532021,
                -0.08287108982176293,
                1.0696998502436605,
                -0.5743049423323027,
                0.8690478074253957,
                0.6959205706181394,
                -0.685475922657294,
                0.46226223750200157,
                0.9459519919892654,
                -1.5042195676602412,
                -0.41952300950736887,
                0.9650537181226219,
                -0.7687801472574881,
                0.10684881585868591,
                0.20924977630620703,
                -0.6595769650563763,
                -0.5070188037267557,
                0.763752252318433,
                -0.8031644805758686,
                -0.44768925543856075,
                0.5415119427157814,
                -0.49039605542627834,
                0.0980568986040798,
                -0.9802181471950379,
                0.7666165378026255,
                -0.04843774741521227,
                0.16648656457836106,
                -0.7451535645861886,
                0.7541731606133815,
                0.6650501275817938,
                -0.616369768028844,
                -0.7942197068196921,
                0.8268929867536587,
                0.25467159841119974,
                0.8358820276017498,
                0.8981333104203256,
                0.6793801049709388,
                0.47382760007680086,
                1.1113603671572072,
                0.6061707320974912,
                -0.4711595289905198,
                -0.8308748398034819,
                0.7856184081694029,
                0.5902778271558975,
                -0.389862825385579,
                -0.5218689455081873,
                -0.6129380059760304,
                0.9240626589893169,
                -0.4839597708529913,
                -0.1506446423199873,
                -0.07727246631446923,
                -0.8981719107766495,
                -0.6648846194595176,
                -0.40759627460215864,
                -0.13164151723868878,
                -0.3881618430589428,
                -0.035413894876000725,
                0.1531666250979571,
                0.41809039597285264,
                0.8503807418950745,
                0.3197320135406295,
                0.3871566859632826,
                -0.8601681524843419,
                -0.3313782556440756,
                0.6563905029026453,
                -0.41494096353622945,
                -0.18411280444598815,
                -0.40955197619578465,
                -0.15857048901575974,
                0.2551545384169821,
                0.22616857198640544,
                0.0948636534124816,
                -0.42619452636747185,
                0.14801470906064718,
                -0.02649024401118771
            ]
        },
        {
            "n": 2,
            "m": 200,
            "weights": [
                [
                    -0.11388245194666727,
                    -0.5726253699041862,
                    -0.05110766123753249,
                    0.8044007146906653,
                    0.5920277653916677,
                    -0.6606411888389019,
                    -0.8304592139403526,
                    0.03236907652157553,
                    0.2658605758122875,
                    -0.3282826744507277,
                    0.6400917449409439,
                    0.5022515334610541,
                    0.34892007046223894,
                    -0.550766536761118,
                    -0.598477800896093,
                    -0.9478712243920189,
                    -0.5084688959348005,
                    -0.049736075340997825,
                    0.702668318561878,
                    -0.8510236517703392,
                    -0.1707140450502148,
                    0.2595006672947299,
                    -0.6111741456355371,
                    0.3926671437778366,
                    -0.01054872371387402,
                    -0.5120515591176904,
                    0.31275100748322576,
                    -0.9873212218720807,
                    0.5019080553438922,
                    0.540059618658225,
                    -0.7822675853463452,
                    -0.14860464386754962,
                    -0.6444025714801503,
                    0.9158938539750276,
                    0.035892228762754774,
                    -0.8992760222999037,
                    -0.49896709990559923,
                    0.6976467753602352,
                    -0.08368876836672542,
                    0.6028049040963885,
                    0.33592374558774796,
                    0.9777570161847847,
                    0.19088702256281,
                    0.9042514909061016,
                    0.7828022394564252,
                    0.22527521216674212,
                    0.44074868798396477,
                    0.009515073956369984,
                    0.6654214871794324,
                    0.1009146701341584,
                    0.7943813445273495,
                    0.4888994536259432,
                    -0.05066662965131323,
                    -0.4816523407318145,
                    -0.5044408782151651,
                    0.27778885730381514,
                    0.5316171312691647,
                    0.04732837437794043,
                    0.25348402552828686,
                    -0.4495911514013164,
                    -0.8426776902620693,
                    -0.4261776241151758,
                    -0.45661828044867697,
                    -0.3606083800942331,
                    0.08454307527168752,
                    -0.7232825556316764,
                    -0.5328244327926226,
                    0.38786360869831027,
                    0.4128096475419709,
                    -0.8703098732582568,
                    -0.18480243583316877,
                    0.08535794530564389,
                    -0.16846735228989282,
                    -0.5852844069659157,
                    -0.15974464633060442,
                    0.8142982857079423,
                    0.16815407122583473,
                    0.3910046321999335,
                    0.7134529975042815,
                    0.5311570276966727,
                    -0.2392705668168174,
                    -0.9879508958843232,
                    -0.2946919255240042,
                    0.5069331770689939,
                    0.7068596030015276,
                    0.9107488771915285,
                    -0.16124327144478257,
                    0.4966587225005047,
                    0.09222781006043798,
                    0.20649755961137614,
                    -0.5564364025311421,
                    -0.5584072435938805,
                    -0.1283415570455659,
                    -0.9397666531107662,
                    -0.3277691520874381,
                    0.35826997367242475,
                    -0.1911646786236024,
                    -0.6692225741041232,
                    -0.0652297679151926,
                    -0.7394914486022458,
                    0.24977445551845381,
                    -0.9442320026450008,
                    -0.2119698768176368,
                    0.12876134828495667,
                    -0.9451436871102045,
                    0.2855284120542195,
                    -0.7286073538719722,
                    -0.0711319140513819,
                    -0.8982133473261467,
                    -0.24182841419265186,
                    -0.5725157044692,
                    -0.3452234889813895,
                    0.5224240978710964,
                    -0.24059063929170915,
                    0.5042620320767421,
                    0.6638024776808328,
                    -0.4940887874399091,
                    -0.8362224302289774,
                    -0.9587389635218753,
                    0.08007744397665904,
                    0.9998110453314157,
                    -0.29854123625428025,
                    0.300269719582234,
                    0.5624403261953982,
                    0.30433674740126654,
                    0.5085413507095333,
                    0.8991854414765527,
                    -0.5954282372315391,
                    -0.9592857832219811,
                    -0.6949179180976697,
                    -0.7431629798829068,
                    0.3388955283053508,
                    0.13144942499179244,
                    -0.5615821459429484,
                    0.4007031489809761,
                    0.5358255209378551,
                    -0.6615824491386115,
                    0.2144512876615318,
                    0.49581927845149726,
                    -0.7709504465234854,
                    0.6396318405523704,
                    0.9298474498729563,
                    -0.7826311643220731,
                    -0.9469153544260978,
                    -0.376099226704287,
                    0.3546606323613212,
                    0.9169149371625238,
                    -0.2044906524962432,
                    0.43000751045514957,
                    -0.8480312405202688,
                    0.3847096027695511,
                    0.25758185878533335,
                    -0.7962395231707206,
                    0.5452202063400421,
                    0.7042221411587067,
                    0.20324312328720273,
                    -0.7579240842644888,
                    0.9713359239840783,
                    0.5653323085289993,
                    -0.30551316082046015,
                    -0.13866421228615428,
                    -0.2550569844509253,
                    0.011888363683156815,
                    -0.3160138353002499,
                    0.7028099461865803,
                    0.6465418013111782,
                    -0.787573201023904,
                    0.9259238755817243,
                    0.27115482907041727,
                    0.6574049777128522,
                    0.41622132523031,
                    -0.12907641671084905,
                    0.46865823921062477,
                    0.9341670529670782,
                    -0.45900395340445327,
                    0.620497902925274,
                    0.0787452208866782,
                    -0.030075552521355818,
                    -0.12565927871137927,
                    0.4620167149386972,
                    -0.46188950739934487,
                    0.7043321634134393,
                    0.6614546350618619,
                    -0.826688572892836,
                    0.7632332116993509,
                    -0.5113186084385793,
                    -0.06796200545168347,
                    0.22063798763853784,
                    -0.24116228225153635,
                    -0.942411524249356,
                    0.7031181812165732,
                    -0.6363395951392531,
                    -0.5757752244730092,
                    0.5956301773572534,
                    -0.3150920353014669,
                    0.764420511480363,
                    0.4023519427942942,
                    -0.44751255507796145,
                    -0.9797013364130673,
                    0.8973545753772203
                ],
                [
                    1.4222642576563451,
                    -0.022669843463788013,
                    0.49197772087014646,
                    0.5216852628100049,
                    0.292741921449571,
                    -0.018963701238684166,
                    0.585568808316246,
                    -0.7415097060013331,
                    -0.5576030224518813,
                    0.5103520611909526,
                    -0.3445938202433483,
                    0.16358095336480355,
                    0.0751699463373849,
                    0.06192967619207907,
                    -0.09301950410295769,
                    0.47165092963047495,
                    -0.4106610176506073,
                    0.40532874784246276,
                    -0.38894623648460325,
                    -0.41036990826589326,
                    -0.7305380767059535,
                    -0.6149077512580301,
                    -0.7611457884408519,
                    0.07140597489961194,
                    0.5463845682592442,
                    -0.6292888553542453,
                    -0.5905350189819435,
                    -0.023737126457899535,
                    0.44793543673832026,
                    0.9527799799775605,
                    0.11274927457260217,
                    -0.4342971063921196,
                    -0.7388778026432825,
                    -0.6112353049183671,
                    -0.5448748799797389,
                    -0.6577192319502014,
                    -0.7952519226091798,
                    0.11691068266159323,
                    -0.3316943065181399,
                    0.9486815833828695,
                    0.542377701796808,
                    0.3011068447208812,
                    -0.7469901125411434,
                    0.7856960710158506,
                    -0.01804380119060459,
                    0.7443116435705713,
                    0.2129116137565476,
                    -0.06184939578757292,
                    -0.019654622674955043,
                    -0.5747725146023274,
                    -0.8987895647211701,
                    0.8533194161192232,
                    -0.04536416595114193,
                    0.6435600749271916,
                    -0.2919909731173637,
                    -0.6721935794117879,
                    0.25964466765083616,
                    -0.8330663117323295,
                    -0.702351574216052,
                    0.7766592633134958,
                    -0.3237189240693971,
                    0.9727143993009713,
                    -0.7637336530062913,
                    0.526862619089181,
                    0.20279149792801723,
                    0.5821083874486591,
                    -0.5342777231835059,
                    0.04430298975072647,
                    -0.10049100543941954,
                    0.01521175283499022,
                    0.7189525436696297,
                    0.9678205425098834,
                    -0.3887232209607317,
                    0.18503127842321768,
                    0.2190711558298369,
                    0.514998787198765,
                    0.8950026142935903,
                    -0.5845746376261469,
                    -0.5784947092708683,
                    0.3209406898879688,
                    -0.6870943871687695,
                    -0.6671003422430375,
                    -0.6402803633920467,
                    -0.9955913796484447,
                    -0.09873274264085022,
                    0.24636952669001633,
                    -0.4568578557508395,
                    -0.3769653586910851,
                    0.4132198124157592,
                    0.4058884676551241,
                    -0.07789934009541478,
                    0.5320365827859685,
                    0.8479878588881437,
                    0.6636656016421533,
                    0.2495809521899895,
                    0.32271848395955216,
                    0.8515429313095959,
                    -0.2286044086412663,
                    0.09028449261252297,
                    0.30292234342521607,
                    0.7656571454997689,
                    0.7514109120338331,
                    -0.8565335861793594,
                    -0.6673236953381992,
                    -0.4899914942457476,
                    0.49309176693300977,
                    0.1384987943939599,
                    -0.4112169439874636,
                    -0.7386589580637085,
                    0.3771016244907618,
                    0.4493017671595727,
                    0.7836362238749365,
                    -0.0001878669632683878,
                    -0.0864757596434561,
                    -0.8529592112990215,
                    -0.9204218117971462,
                    -0.14592079458536797,
                    -0.3550219027018499,
                    -0.33587335281896147,
                    -0.7715818279169918,
                    0.9233354584734231,
                    0.5401902002557489,
                    0.14926587363831254,
                    0.9012594433882808,
                    1.0118983946030162,
                    0.337979703495241,
                    -0.4617793832259645,
                    -0.8680435598606182,
                    0.512306267009051,
                    -0.07856388170650559,
                    0.27755276187846734,
                    0.8326674308716298,
                    -0.5736385755417855,
                    0.07750848981217529,
                    1.218712948093326,
                    0.0900345852377019,
                    -0.8265101588260167,
                    -0.30394584905834426,
                    -0.3343353566141941,
                    0.33953834415644024,
                    0.770396142399172,
                    -0.2999057925390926,
                    0.2734343369581312,
                    -0.24728585189126426,
                    0.8907436801330648,
                    0.6254440653644892,
                    0.16342043965521366,
                    -0.04797613450383437,
                    -0.3699658188787377,
                    -0.3552452946136141,
                    0.9498257477782436,
                    -0.13089129618582684,
                    0.02932329130169603,
                    0.957636043168838,
                    0.2763882241910059,
                    0.220444382220998,
                    -0.17310079374322423,
                    -0.6113865197019911,
                    -0.2798099968110772,
                    0.5043279862412394,
                    0.20481223892580663,
                    0.46627876603382923,
                    -0.5944376053984949,
                    0.7249209233636152,
                    0.7821295219848623,
                    -0.0045648254715040274,
                    0.5030512484285762,
                    -0.711552030386708,
                    0.9429567286987591,
                    0.21811503057725826,
                    -0.3705362532783974,
                    -0.6835249069468186,
                    0.5548916303463318,
                    0.23721045602744392,
                    -0.7101127731728132,
                    1.0083885197673326,
                    0.9416313711971772,
                    0.08943456915004788,
                    -0.5743698582134084,
                    0.6636088296256385,
                    0.08188292013498227,
                    0.4238755462257963,
                    0.017321939630812324,
                    -0.45415468630503797,
                    0.6673934212088243,
                    0.8592899552372433,
                    -0.46826424431718316,
                    0.10325148707184052,
                    -0.15021419469810496,
                    0.8292230897137859,
                    0.10153017642596501,
                    0.7584597895495646,
                    0.7283223335255238,
                    -0.4481024080695795,
                    0.5916588769626068,
                    -0.1043069856061232,
                    0.867958455404629,
                    0.0149204450951154,
                    0.6404089824002157,
                    -0.3682826181563276
                ]
            ],
            "biases": [
                -0.827173584672533,
                -0.5201639247678864
            ]
        },
        {
            "n": 1,
            "m": 2,
            "weights": [
                [
                    0.127196039693061,
                    0.8989683420403043
                ]
            ],
            "biases": [
                1.0286174219871385
            ]
        }
    ]
}