{
    "layers": [
        {
            "n": 64,
            "m": 64,
            "weights": [
                [
                    0.320575528887266,
                    -0.5530716119462082,
                    -0.5815281939134443,
                    -0.9396028291624825,
                    -0.4956649921907302,
                    -0.053501945286365295,
                    0.6924042851361919,
                    -0.8507231791894907,
                    -0.1755716701486304,
                    0.2506906498994848,
                    -0.6158855615549296,
                    0.39487827628876715,
                    -0.018519151981259356,
                    -0.5056787119779705,
                    0.31793348352096834,
                    -0.9849696667941505,
                    0.503257578474203,
                    0.5441347747914235,
                    -0.7850345054123443,
                    -0.14541001319217758,
                    -0.641554822571721,
                    0.9107041202612244,
                    0.036467076982002154,
                    -0.893239895912541,
                    -0.4945401489577153,
                    0.690002936009883,
                    -0.09349239316614595,
                    0.6054037372738075,
                    0.33462520488234215,
                    0.9794547527168953,
                    0.19466831321166517,
                    0.8996903996970541,
                    0.7869687858073009,
                    0.2252050146968571,
                    0.44392883234955843,
                    0.019031654613780313,
                    0.6589088085329362,
                    0.08967259946796398,
                    0.7986439524997552,
                    0.4887229337870193,
                    -0.06142384208478031,
                    -0.4760062630726838,
                    -0.4838435204015393,
                    0.28249154426257167,
                    0.5363176790734249,
                    0.038570871460033386,
                    0.2544993146770214,
                    -0.4392812575400074,
                    -0.827200889195419,
                    -0.42087019772375506,
                    -0.45226031391242666,
                    -0.3493580597391086,
                    0.07053415387551629,
                    -0.6982420996038256,
                    -0.5290870131352017,
                    0.38631807602680535,
                    0.39266683393122687,
                    -0.8494349997497341,
                    -0.16476287399363906,
                    0.08679174528515207,
                    -0.1755987771388836,
                    -0.597002021147384,
                    -0.14545860432417934,
                    0.8301937629456645
                ],
                [
                    0.3895068091477322,
                    0.7087377995997364,
                    0.527147378439457,
                    -0.2398544459217483,
                    -0.9816862140279033,
                    -0.2908571261017132,
                    0.5090532116056791,
                    0.7044162717622028,
                    0.8917981035801178,
                    -0.16349181790334083,
                    0.5007310129562446,
                    0.09787436016180875,
                    0.21103717634227578,
                    -0.5542598632732036,
                    -0.5512194959068419,
                    -0.11922741441103492,
                    -0.9246393265604115,
                    -0.31754832615249023,
                    0.35684683775182147,
                    -0.1897858682927957,
                    -0.6580902545989339,
                    -0.05945302341031481,
                    -0.74549552978664,
                    0.24313189977305513,
                    -0.9422489825069089,
                    -0.20584172351920413,
                    0.1375324215975667,
                    -0.9351843469624218,
                    0.27939035035994314,
                    -0.7259921070717382,
                    -0.0773884691667248,
                    -0.8991210031568658,
                    -0.23915011615854956,
                    -0.5769989186341034,
                    -0.34702066772953993,
                    0.5212776372611022,
                    -0.2380447031668419,
                    0.49552293541508247,
                    0.6552719810439701,
                    -0.4942131400955907,
                    -0.830192382653134,
                    -0.9539703209786106,
                    0.07636589156980805,
                    1.00182637876032,
                    -0.2999080180206433,
                    0.31565879490632404,
                    0.5718951121360982,
                    0.3092795144934308,
                    0.5069830880366657,
                    0.8959507735718933,
                    -0.5910664725750471,
                    -0.9511605574246685,
                    -0.6856418415237389,
                    -0.7453053592942543,
                    0.336595272610088,
                    0.12380699957442395,
                    -0.5306356375827271,
                    0.390278526579566,
                    0.5181943197567583,
                    -0.6744613263261187,
                    0.21805930967347753,
                    0.5114788692982389,
                    -0.762823502723798,
                    0.6360293893450089
                ],
                [
                    -0.786233427121474,
                    -0.9478657698931733,
                    -0.3744109136773369,
                    0.35111641384275666,
                    0.9141446854881641,
                    -0.20984751398081006,
                    0.4256381523049097,
                    -0.8501205125741567,
                    0.38258538705272443,
                    0.2538634115986794,
                    -0.7968977141667776,
                    0.5451675436889477,
                    0.6974652484786623,
                    0.20084568542377929,
                    -0.7598131870043761,
                    0.9654483129700283,
                    0.5720577733047103,
                    -0.30105382953027043,
                    -0.1415594080744877,
                    -0.26252569926892305,
                    0.010135908714581044,
                    -0.3173741900514469,
                    0.7029137666246793,
                    0.6409191846409092,
                    -0.7855808544025109,
                    0.9221836401536754,
                    0.2665437675193176,
                    0.6527564776255932,
                    0.4107711979664975,
                    -0.13039130690547399,
                    0.46215631682514485,
                    0.9273490192336935,
                    -0.4616057322806986,
                    0.6148234972485727,
                    0.07338961558759824,
                    -0.033897922320999564,
                    -0.12055645300597456,
                    0.4603072195988488,
                    -0.46521392982781357,
                    0.7009584423599996,
                    0.6650966694468843,
                    -0.8316349069065396,
                    0.765147936470154,
                    -0.511273127109587,
                    -0.06372511231274436,
                    0.22885542191335337,
                    -0.24406046305497225,
                    -0.9499648266116053,
                    0.7010489219860397,
                    -0.6354355567082862,
                    -0.5792580070116533,
                    0.587870567443695,
                    -0.3210183272933994,
                    0.7607345828287284,
                    0.4039404789110629,
                    -0.4531007113655465,
                    -0.9958399309213753,
                    0.8970714945855478,
                    -0.8232192770626081,
                    0.4387507609425555,
                    -0.02779380379755427,
                    0.5110290412064209,
                    0.3800789565838394,
                    0.2867098465997205
                ],
                [
                    0.5568029953534195,
                    -0.8122513285154975,
                    -0.5433796296724934,
                    0.381466114435738,
                    -0.37531162899251974,
                    0.15635570735445825,
                    -0.07005294407187809,
                    0.051949574693354414,
                    -0.16391235580803895,
                    0.4785038597620782,
                    -0.34009880287588773,
                    0.4044795010348886,
                    -0.4595584848667807,
                    -0.49346139652788407,
                    -0.7523536049021738,
                    -0.6134778538408165,
                    -0.7393026766400855,
                    0.08092607047852764,
                    0.5196837470474232,
                    -0.6337704080312568,
                    -0.5604126201605059,
                    -0.033657689107017774,
                    0.44028111237679624,
                    0.9424597077907014,
                    0.06199826559094458,
                    -0.4317753638411474,
                    -0.8068290410039578,
                    -0.6182277230897439,
                    -0.5472070541498946,
                    -0.6321433288392782,
                    -0.9657946669622646,
                    0.05780031843458775,
                    -0.44678888375627407,
                    0.9399446468520728,
                    0.1069554993380793,
                    0.39063090990364957,
                    -0.7400837362827657,
                    0.7141594748841855,
                    -0.02580554871659514,
                    0.7410273593281869,
                    0.15911594789882869,
                    -0.06150305655831627,
                    -0.11647299825468994,
                    -0.6292894524317401,
                    -0.8769494021915389,
                    0.887108468368234,
                    -0.051439284194640465,
                    0.6354436878354498,
                    -0.1838868625995821,
                    -0.8360920055537063,
                    0.26385528936331515,
                    -0.890866284995911,
                    -0.716855812057542,
                    0.14111169784195143,
                    -0.38757380347665077,
                    0.9758278965724608,
                    -0.7559286384865803,
                    0.5266009448729126,
                    0.20390068109527337,
                    0.5715102144328593,
                    -0.5084448725701509,
                    0.05060056172429111,
                    -0.10772164571499133,
                    -0.1291641333621278
                ],
                [
                    0.9867032482093194,
                    -0.38966271232385824,
                    0.23934579079840446,
                    0.21894506426726182,
                    0.4795652277492038,
                    0.8967058119779924,
                    -0.5841698197072793,
                    -0.5798724602492975,
                    0.3156810633184729,
                    -0.6848132116937118,
                    -0.6493563090021209,
                    -0.8462339915696749,
                    -0.9914079321998216,
                    -0.09723856679195614,
                    0.1895152206916255,
                    -0.4157140997754541,
                    -0.5398185660209063,
                    0.408185236343976,
                    0.4040100393744176,
                    -0.0897822126232966,
                    0.38100869851249086,
                    0.8514114150154185,
                    0.5753995938580776,
                    0.25054115021853435,
                    0.31676185571505544,
                    0.8697712425941742,
                    -0.14227046391867107,
                    0.09546838064940802,
                    0.290647833314834,
                    0.8127253832358674,
                    0.6545172956240964,
                    -0.8520193414013902,
                    -0.6664045521428309,
                    -0.383711476795383,
                    0.49354526756790384,
                    0.1345934694862016,
                    -0.4283402356132331,
                    -0.7475245632352676,
                    0.3766164086936097,
                    0.4012929358319657,
                    0.8764731451069149,
                    0.0009347646828421921,
                    -0.00854710087053751,
                    -0.8369930471063363,
                    -0.9236859828385915,
                    -0.13236452182917735,
                    -0.348054113977646,
                    -0.49221644643112217,
                    -0.8114962472632531,
                    0.9205570629979035,
                    0.6698928080019277,
                    0.153632039048858,
                    0.9029399393965369,
                    0.9967476755456357,
                    0.3420960037270411,
                    -0.45811360375918037,
                    -0.9071631071626521,
                    0.5161128738539481,
                    -0.06288194544633796,
                    0.2999728125537392,
                    0.831703286803176,
                    -0.6246184343575814,
                    0.16582044837574747,
                    0.2570714965014549
                ],
                [
                    -0.8155603663130131,
                    -0.3036191581027927,
                    -0.3333882684559114,
                    0.34132143573639107,
                    0.714165087409149,
                    -0.33957845164447986,
                    0.3876710760550229,
                    -0.42283727682764327,
                    0.8888300909116352,
                    0.6281657928917186,
                    0.10145299032239306,
                    -0.08910870460419272,
                    -0.36935052781032046,
                    -0.35305504962187645,
                    0.9401877452589297,
                    -0.18983243758547572,
                    0.02917811278294531,
                    0.9742928561847466,
                    0.3153322882338183,
                    0.0860706235062951,
                    -0.17125847940179495,
                    -0.6235211772852636,
                    -0.2761694727388494,
                    0.5128743170805143,
                    0.2500596088229307,
                    0.5192711227157137,
                    -0.5924334921244161,
                    0.09930971406168208,
                    0.8534632331244063,
                    -0.12392565542158712,
                    0.3965282017502342,
                    -0.7565045290549827,
                    0.9442497736716712,
                    0.21741950771187354,
                    -0.5198498693358055,
                    -0.6810484187547631,
                    0.10118698992724827,
                    0.10553308468317685,
                    -0.8132298060932942,
                    0.9851037569341976,
                    0.8235654114114249,
                    -0.07599065742332717,
                    -0.7630875975915931,
                    0.6657969989001108,
                    -0.004182845265818838,
                    0.43304412345765486,
                    0.019621485055900036,
                    -0.4515233571658777,
                    0.6683217351474244,
                    0.9583547799746089,
                    -0.5114052129216513,
                    0.10430017679324799,
                    -0.2321389812261222,
                    0.8434398983480851,
                    0.015844808868992002,
                    0.7590771348610723,
                    0.7252594363515046,
                    -0.44573405403743016,
                    0.5814960527024003,
                    -0.16920776229844403,
                    0.8656061099558768,
                    0.014301089772394355,
                    0.642141497600388,
                    -0.43173800447957106
                ],
                [
                    0.17349068218041566,
                    0.9972963995982497,
                    -0.01993156626110078,
                    -0.7019812072733139,
                    0.07749939334587658,
                    -0.3096090415849618,
                    0.10345375356410771,
                    0.08755710139072705,
                    -0.08879269675839453,
                    -0.3566431431519107,
                    -0.6221585343868083,
                    0.3958510298000394,
                    0.14331125697283154,
                    -0.5323368740683004,
                    0.551715659853236,
                    -0.9127980439191237,
                    0.4898523402986233,
                    0.41100061550004235,
                    0.6228381448651142,
                    -0.22810910563041878,
                    0.32722983283661056,
                    0.6402332729100237,
                    0.9613726798554425,
                    -0.009222005044254966,
                    -0.9239759164199965,
                    0.004832421018857256,
                    0.17969015284283843,
                    0.7394879774717481,
                    0.7474160438847313,
                    -0.11928212200368378,
                    0.05232000415477505,
                    -0.08620954368630523,
                    0.4438298616834193,
                    -0.18004688700125648,
                    0.30985183624043017,
                    -0.6906210087709885,
                    -0.06053794699376778,
                    0.9389363007271343,
                    -0.32292352523019824,
                    0.38551826643952475,
                    0.29889449731928813,
                    0.7039226164307324,
                    0.7046481431859951,
                    0.718836260738103,
                    -0.23971232484732374,
                    -0.3656626151084642,
                    0.4386270856229177,
                    0.519065003140937,
                    0.7445954137144658,
                    -0.9283367503616242,
                    -0.8627682688321541,
                    0.26250266816614976,
                    0.8409600577217649,
                    0.99557062357364,
                    0.4941548341019554,
                    -0.13094022559326302,
                    -0.8039019095406754,
                    0.2670723385767411,
                    0.7454799376980841,
                    -0.11185942947162503,
                    0.38921448286863913,
                    0.8054276718884401,
                    -0.9079805037098609,
                    0.592709642842441
                ],
                [
                    -0.24914593794142675,
                    -0.7014548269608476,
                    0.06829498989390866,
                    0.1434063389546047,
                    0.5841127874822247,
                    -0.6492866847506237,
                    -0.8262890058269609,
                    0.7548839916921121,
                    0.2420923075890041,
                    -0.510984321219862,
                    0.8294990250835441,
                    -0.7033747998625274,
                    -0.07628405770839805,
                    -0.49003080808238497,
                    -0.48133824880014525,
                    -0.9680976642725874,
                    0.6073408885945145,
                    0.7949920253439082,
                    0.3590859568937104,
                    -0.6723708644541977,
                    -0.11015968240125881,
                    -0.30669791753552617,
                    0.17580442350415856,
                    0.2853212288517284,
                    -0.15123943822762903,
                    -0.4932324122225601,
                    0.6973916124956626,
                    -0.5886644810274756,
                    -0.22763166880988575,
                    -0.02748195748363295,
                    -0.5134904408550107,
                    0.156855864334233,
                    0.1476611749616671,
                    0.9809189513460606,
                    -0.3976131313162423,
                    0.9710948889187577,
                    0.3123580596419752,
                    -0.44902237920034954,
                    0.13923486398906093,
                    0.3863013863444939,
                    0.48314222036531307,
                    -0.8931503465678504,
                    0.21853657337276444,
                    0.003899500297055686,
                    0.8059119390942453,
                    -0.4184638601631262,
                    0.6029691530422001,
                    0.22546883578852023,
                    -0.29995340664862674,
                    0.26861980612137437,
                    0.24154129700464644,
                    0.3658203302271335,
                    0.4332927505723694,
                    0.32137753073320874,
                    0.6881232988417627,
                    0.2741391320074493,
                    0.8075648270285705,
                    0.2941153932382765,
                    -0.36666879535290126,
                    -0.10381213423678809,
                    0.17910461382633447,
                    0.45517805365264175,
                    -0.824291052985763,
                    -0.40067617729719945
                ],
                [
                    -0.6461489836996174,
                    -0.7383808110908707,
                    0.07261037343097394,
                    0.9402523088329328,
                    0.06047137235864778,
                    0.8276195468568818,
                    0.6614909034705497,
                    -0.4888907713358735,
                    0.6522250957376944,
                    -0.03418664373136096,
                    0.6110604383201084,
                    0.48621830857184145,
                    -0.3198812456924664,
                    -0.769597541130917,
                    0.9239260299146173,
                    -0.7220959087172306,
                    0.9327575224092534,
                    0.7188648409218412,
                    0.44554383790309315,
                    0.9582328024197002,
                    0.9361522291178344,
                    0.6118503332524913,
                    -0.27117794373889254,
                    0.5793141474513793,
                    -0.9752349868003285,
                    0.07736550116193196,
                    -0.08518713636395446,
                    0.34570280110457097,
                    0.3527067986255192,
                    0.16957333753252507,
                    0.6454725147800195,
                    0.8808021066099806,
                    -0.7843603895363528,
                    -0.5337479063617443,
                    -0.9510537676546007,
                    0.766750201637155,
                    0.1238922871121881,
                    0.8342858187400599,
                    -0.557443528531277,
                    -0.8762258911452714,
                    0.6483202704542578,
                    0.815718375856476,
                    -0.4030581325361805,
                    -0.18858265448081218,
                    -0.7233140386456917,
                    0.8884254785798891,
                    -0.3954832721434124,
                    -0.01620987838501752,
                    -0.8089604387892558,
                    0.7761868626497431,
                    -0.7279649462677508,
                    -0.09849349957409612,
                    0.33683945179083263,
                    0.48373880858842744,
                    0.8916100866880704,
                    -0.1609762855621509,
                    0.49315258819392116,
                    -0.6986098999039791,
                    -0.17325785383103293,
                    -0.8001537660524031,
                    -0.0034386379103850677,
                    -0.17766158206604163,
                    0.8929563120566142,
                    -0.9488700815247011
                ],
                [
                    -0.11312095006008323,
                    0.9011289380066109,
                    0.7108742412567951,
                    -0.8010949495284542,
                    0.3714921015518266,
                    0.08908414020109531,
                    0.9557038487257158,
                    -0.28263561220772415,
                    -0.2036624731741765,
                    -0.6203010907116814,
                    -0.7556409491200755,
                    0.6961290644902346,
                    -0.090676514816171,
                    0.3255169904579268,
                    0.28342518220440466,
                    0.19441903465803465,
                    -0.9574432717270652,
                    0.5736112024380083,
                    -0.5127452059007156,
                    -0.748059144172909,
                    0.12906135662539842,
                    -0.8626876995464114,
                    0.5304403784179067,
                    -0.5855604949968595,
                    -0.5680071731205555,
                    0.7394102168366635,
                    -0.34291636068635095,
                    -0.704724774546439,
                    0.8011703627407669,
                    -0.9943260209858553,
                    0.7168003026455027,
                    -0.7105527230535732,
                    -0.7399383337517381,
                    -0.49861585757991167,
                    -0.6509001919021677,
                    0.32213388435278345,
                    -0.9484373375944138,
                    -0.9702411594746887,
                    0.5800887786565583,
                    -0.5240100412480182,
                    -0.3522711870624586,
                    -0.6514392939563179,
                    -0.895170322471177,
                    0.48340669126594166,
                    0.05204143226673797,
                    0.49130094886036446,
                    -0.0475303414619481,
                    0.5560970212759707,
                    0.02654801263940935,
                    -0.7817747792669915,
                    0.007730752686665659,
                    0.8909333785000566,
                    -0.9132984544170357,
                    0.5663022098477689,
                    0.7339964013896502,
                    0.042930196855504595,
                    -0.08367212729033824,
                    0.928095200322809,
                    -0.8782866560547418,
                    -0.041818494178822024,
                    -0.19659642813212586,
                    0.3721932790139333,
                    -0.01937420962973354,
                    0.8194126290484337
                ],
                [
                    -0.8323235220589356,
                    0.21016800941407113,
                    -0.8720642333960479,
                    -0.4422160111307974,
                    0.26379892770310887,
                    0.09910678088000875,
                    -0.34752223078237354,
                    0.9856953347314512,
                    0.052649371340774374,
                    -0.08936918722895096,
                    0.2122246323715788,
                    -0.7958136838669615,
                    0.40122742472673806,
                    0.7050426083543312,
                    0.29861120809797304,
                    0.5366177124165077,
                    0.43686461664017767,
                    -0.5733502766335408,
                    -0.09047343396387952,
                    -0.5324446903904952,
                    -0.3180607620528717,
                    -0.0828846759027429,
                    -0.1627421389173526,
                    -0.8020238962925866,
                    -0.14983235607692474,
                    0.3305606032069152,
                    -0.24079303972158966,
                    -0.6829342611006667,
                    0.8365213422655875,
                    -0.8624905057462688,
                    0.6663602907585182,
                    -0.8035027660234255,
                    -0.8082504111929113,
                    0.4795371208033667,
                    0.6248546526359172,
                    0.11601683820985222,
                    0.17691241873017238,
                    0.12991929392592588,
                    -0.3380246153656144,
                    -0.75106117947822,
                    -0.29183781514426116,
                    0.33143701632346817,
                    0.49945822396498984,
                    0.7354369427248455,
                    0.4381498174435033,
                    0.9381561517425822,
                    0.20400805486873266,
                    -0.29426431063050207,
                    0.14775685531179367,
                    -0.5707532712546446,
                    0.3181594477086606,
                    -0.544397640431925,
                    -0.7762198985801299,
                    0.683093973785465,
                    -0.2766800217361208,
                    0.5271413051214884,
                    0.15881763051125652,
                    0.6087186086285881,
                    0.671543884350712,
                    0.9515129412933976,
                    0.641764034029754,
                    0.23999528971006157,
                    0.2951173115692406,
                    -0.9390472240394668
                ],
                [
                    0.6549013324826918,
                    -0.46404491143685944,
                    -0.6333317032164243,
                    0.4105572168431279,
                    -0.38347081214014334,
                    -0.3174860586194612,
                    -0.982269428777502,
                    0.7420330112635733,
                    0.13081271384596646,
                    -0.19995751759061428,
                    -0.7108559055026047,
                    0.2730819438138798,
                    -0.9364617560891628,
                    0.49094825253932234,
                    -0.56893262648255,
                    -0.15512519880276285,
                    -0.3142642615526381,
                    -0.2551107340369441,
                    0.44400552380687863,
                    0.5568261995026668,
                    0.13271161873326306,
                    -0.8265188203742924,
                    -0.8887222250695798,
                    -0.6799546852899134,
                    0.2348338300176366,
                    0.34864155382435064,
                    -0.4520638773284724,
                    0.3279887611031784,
                    -0.02741207586799572,
                    -0.11551805717504474,
                    -0.4529967046335987,
                    0.5112732610804518,
                    -0.7679609271275252,
                    -0.13996127657439378,
                    -0.4322025244214137,
                    0.3595991737274569,
                    -0.026523874710972152,
                    0.3349445379709017,
                    -0.9060359544465604,
                    -0.20529420517970393,
                    0.1971984239535674,
                    -0.9822884023971283,
                    -0.39270754806353453,
                    -0.5717585631535883,
                    -0.721888337316293,
                    -0.484563916058932,
                    -0.3386460942735234,
                    -0.9784456674525004,
                    0.4934659071428851,
                    -0.6449948389612917,
                    -0.23484949489521392,
                    0.41180740628374857,
                    -2.7322197162334792e-05,
                    0.6656158497359491,
                    0.6131867261476612,
                    -0.852679597575233,
                    0.7249025341727988,
                    -0.913694144196842,
                    -0.9587061387869628,
                    0.8428524080566039,
                    0.7138099040140695,
                    0.15314384472021023,
                    0.15395295438824894,
                    0.42601298592186176
                ],
                [
                    -0.7646912395276013,
                    -0.9577658495922733,
                    -0.3472373026076587,
                    0.6034805303624317,
                    0.2353824478344185,
                    0.6572032236758528,
                    0.8337048052237932,
                    -0.8181061556295335,
                    0.6723660765450161,
                    -0.5187027589198657,
                    0.18405111212586533,
                    0.06727646593416738,
                    -0.2107156441092179,
                    -0.3725742412726817,
                    -0.3087334276817508,
                    -0.322294062029385,
                    -0.6471531850185094,
                    0.030811331703923552,
                    -0.7579960455531681,
                    0.029570112361172015,
                    0.8163903735116692,
                    -0.2943501536093145,
                    0.45853320225033284,
                    0.6416252426491743,
                    0.6387309281733288,
                    -0.528052062737028,
                    -0.7107722526796788,
                    -0.5988146821473924,
                    0.1991456506143092,
                    0.5189801981614173,
                    0.30885203163389885,
                    -0.6401404688358832,
                    0.5507422613387413,
                    -0.006170398284493233,
                    0.515395540433037,
                    0.526448355724241,
                    -0.09250147024098448,
                    0.8389527533764013,
                    0.1288798630038148,
                    0.282843493345055,
                    0.2532669950206014,
                    0.7276673482702714,
                    0.26394595980151037,
                    -0.6843720453321686,
                    -0.8367596360595911,
                    -0.0905482831130816,
                    -0.38386436662672196,
                    -0.4499404399802765,
                    -0.8795953931567264,
                    0.006949507405145757,
                    -0.38065002481298904,
                    -0.0920501032014821,
                    -0.8850259377024882,
                    0.6630724906563057,
                    -0.8421483678078403,
                    0.7335657313887,
                    0.6774855766821386,
                    0.22993360952064737,
                    0.024111795051824807,
                    -0.07838386542791559,
                    0.10401471943278377,
                    0.571344265908342,
                    0.8091857692074662,
                    -0.08402704214693615
                ],
                [
                    0.3039788111573845,
                    -0.3534001781156636,
                    -0.039149982324052264,
                    -0.6870733434008083,
                    -0.8692544172282768,
                    -0.7821960686732333,
                    0.8081151125419038,
                    -0.3036052577625059,
                    0.44213975706511965,
                    0.008847572533113683,
                    -0.6529753311775598,
                    -0.5010502391355721,
                    -0.1256063108957279,
                    -0.12146465445228966,
                    0.04292137742057453,
                    -0.6785019431347874,
                    -0.2567778570460312,
                    -0.4265359720888035,
                    -0.1774948984816982,
                    -0.3204756974867236,
                    0.18173054650250478,
                    0.5672764905800258,
                    0.2974139892756018,
                    -0.8568336600629465,
                    -0.8045753204827386,
                    0.35518192521353703,
                    -0.42980933043659375,
                    0.4502386677370729,
                    0.3176400107693352,
                    0.8072477785852508,
                    0.7444857767069808,
                    -0.33012877104182253,
                    0.16424591446474274,
                    -0.7071430004951947,
                    -0.28986227861913216,
                    0.9419413385274764,
                    0.3992064684382082,
                    -0.20543552941807877,
                    0.19108295239253728,
                    0.8764563841138403,
                    -0.38116435389975545,
                    -0.2481496971924891,
                    0.5753306821325561,
                    0.6275658755494654,
                    0.3360572462990614,
                    0.6493950647469563,
                    0.4726203042589203,
                    0.37753438721517085,
                    0.027947472854962435,
                    0.2902248451579135,
                    -0.14417042589335805,
                    -0.2692965876528267,
                    -0.2861233087950708,
                    -0.6308351674867286,
                    -0.5589308974794813,
                    0.8970428863288812,
                    -0.0034546295477926635,
                    -0.5563923900116371,
                    -0.7266414747036928,
                    -0.8268116397856329,
                    0.6695898801537944,
                    -0.8207775206539233,
                    0.5396304830744775,
                    0.69315397214347
                ],
                [
                    -0.8937571752097143,
                    -0.3277316223445842,
                    0.5262721301143449,
                    -0.7361494684026545,
                    -0.2462034145801312,
                    -0.6695488268441385,
                    0.6603607942195082,
                    0.5365803392235412,
                    0.602101029848718,
                    -0.6585310445952357,
                    -0.12441209709240288,
                    -0.17633055792297747,
                    0.34852516045420834,
                    -0.5145532806314256,
                    -0.11049672387826855,
                    -0.42883836439123607,
                    0.4797121830440851,
                    -0.10972100942241271,
                    0.07394525730221833,
                    -0.3719676070805992,
                    0.6241551425914019,
                    -0.05259865408693337,
                    0.6704049302701773,
                    -0.26248276706033985,
                    0.8807243984968178,
                    0.960649094302693,
                    -0.07165638388148766,
                    -0.4284861396739986,
                    -0.22173605400381605,
                    0.04954289572571589,
                    0.9171834264513069,
                    0.6328249892539236,
                    0.6002386407169867,
                    -0.7152712042399147,
                    -0.5030106719388752,
                    0.27815546162311866,
                    0.7386936412667358,
                    0.1172928849950084,
                    -0.788607265438813,
                    0.6916724417813246,
                    0.6791229654355515,
                    -0.43266101431088394,
                    0.5356591408562966,
                    -0.45482612283498414,
                    0.8043994155448999,
                    -0.6996801468671855,
                    -0.12478355497452985,
                    0.8912752671356293,
                    -0.5427850107771754,
                    -0.10637686400819701,
                    -0.31217149412555284,
                    -0.9470894629607511,
                    -0.8753352058331096,
                    0.0006950660246518857,
                    -0.539643282952468,
                    0.984793039707808,
                    -0.25555751586221714,
                    -0.9211983360173794,
                    0.8738168474526778,
                    0.6758002182530937,
                    0.2965031464514543,
                    0.5728380288334921,
                    -0.7094153465413225,
                    -0.4253023972780124
                ],
                [
                    0.3925935643730766,
                    -0.7224711967275221,
                    0.41080360627407175,
                    -0.10281787873200511,
                    -0.9889101423492538,
                    -0.8414669087219132,
                    -0.48829575345389276,
                    0.6697366406881372,
                    0.09700367052603429,
                    0.45422283544701064,
                    0.05540190269130425,
                    -0.7771301578205175,
                    -0.42384261641051185,
                    -0.39769184516704953,
                    -0.9044586214993463,
                    -0.16010520425538197,
                    0.5879688171811165,
                    -0.08545099859083899,
                    -0.7781245249530664,
                    0.8103628354169672,
                    0.19417854342875654,
                    -0.9664569201533328,
                    0.03135708886153726,
                    -0.5157919434286625,
                    -0.7121683498358992,
                    -0.14158014191263862,
                    0.22971850228038865,
                    -0.5189420988271576,
                    -0.1664693131355343,
                    0.32845799180031937,
                    -0.8289488058835973,
                    0.94948205187287,
                    -0.8645060009631932,
                    0.05243761145760676,
                    0.014753380503415082,
                    0.9765756251370598,
                    0.10800148520049115,
                    -0.2193059581671161,
                    -0.05952022564265336,
                    0.2716954310595501,
                    0.9619433770781533,
                    -0.49280850745172045,
                    -0.9670873626745982,
                    0.5774816879672307,
                    -0.30969311291924745,
                    0.46638411197991414,
                    0.25669654411243137,
                    0.5429736502809497,
                    0.47019630845624383,
                    -0.334326118048022,
                    -0.9107682647372538,
                    0.09210438063826017,
                    0.6270129579591982,
                    -0.6500695526482418,
                    0.557778891593765,
                    -0.07078017431774823,
                    0.39094158267025353,
                    0.26391329874888836,
                    0.6228340235020214,
                    -0.8736983706029786,
                    0.5527389451302231,
                    -0.08427316449217616,
                    -0.4129893807614567,
                    -0.9127671827054314
                ],
                [
                    -0.9128550601402774,
                    0.8643955350257225,
                    0.03331787173342343,
                    0.9771765594755196,
                    0.08991596180275144,
                    -0.497253208607655,
                    0.5023609687650205,
                    -0.6144511926095086,
                    -0.28941463440940857,
                    0.5571728267723355,
                    0.7343485709883641,
                    -0.3280717685716466,
                    -0.748046269945594,
                    -0.2624131449410483,
                    0.7861303081070948,
                    0.4915851553746744,
                    0.7911950811575499,
                    -0.22808798659507878,
                    0.9501324042535312,
                    -0.0015212069517498588,
                    -0.0015143118709698572,
                    0.8485463517050801,
                    0.039350703195822394,
                    0.6066598130580853,
                    0.4535972716872349,
                    -0.8419184334088015,
                    0.20189891749569028,
                    0.6429271442171185,
                    0.08597998268078898,
                    -0.35382958866270126,
                    -0.83409843799551,
                    0.3285243197601123,
                    -0.37851739972379206,
                    0.20818338667276223,
                    -0.14529130426094047,
                    0.38229501855785264,
                    -0.29098219781541906,
                    -0.9114629823950758,
                    0.7409517025651424,
                    -0.2903523370186692,
                    0.9922248873477256,
                    -0.44935450380528696,
                    0.964407298664261,
                    0.8991410407050233,
                    -0.8448077131960867,
                    0.27935214555846816,
                    -0.26550004097829516,
                    0.6058666094739078,
                    0.361016149410615,
                    0.9020649127845102,
                    -0.7097107544646861,
                    0.22187948490265594,
                    0.5628250707392398,
                    -0.9239252763285851,
                    -0.8581493938192908,
                    0.5599208539565251,
                    -0.28983431212160027,
                    -0.23380699074309877,
                    0.13978720894286914,
                    0.21310543500892737,
                    0.3322256496775196,
                    0.9018950460212733,
                    -0.23469115255432976,
                    0.5446866780216324
                ],
                [
                    0.059015157329994954,
                    -0.19760116255831428,
                    0.2955963933892644,
                    -0.4973048129883544,
                    -0.7747654922546792,
                    0.4771509901695296,
                    0.006568194170868619,
                    -0.22032069645037802,
                    0.12221153873068373,
                    -0.468479262394658,
                    -0.4744224118904689,
                    -0.10395266028636997,
                    0.9916266886370249,
                    -0.43469754394319915,
                    0.8326349225952554,
                    -0.01430626529126153,
                    -0.7476648439635792,
                    0.6927918740593466,
                    -0.09985933767186536,
                    0.7965155830480897,
                    -0.11102033188729116,
                    -0.8225292499613607,
                    0.363247158095952,
                    0.6904122707507065,
                    -0.36675067920753746,
                    -0.2973933341592633,
                    -0.8589090838428922,
                    0.091955830149384,
                    0.7718649057913142,
                    0.7032412920648986,
                    0.43110620892450574,
                    0.8604803531336235,
                    0.2746345990594393,
                    0.5819507052893249,
                    0.01949680945329302,
                    -0.7525825719966917,
                    -0.588197129098771,
                    -0.7197922539430519,
                    0.5776389646770771,
                    -0.9421701690310604,
                    0.118504032796895,
                    -0.25336465730367674,
                    0.5968660696356721,
                    0.10331421363703334,
                    0.22083249432795846,
                    -0.8155402702305009,
                    -0.3732351998415178,
                    0.9988574683900159,
                    0.41886881849255514,
                    0.04547558202700751,
                    0.5357666839642905,
                    0.646341361066077,
                    -0.8462486368484403,
                    0.925633658351232,
                    0.286521444955267,
                    -0.09116704776085416,
                    0.37368805630916496,
                    -0.31983054582152803,
                    0.742357323550144,
                    0.5541866277041668,
                    0.28678586943011636,
                    -0.6374961809003794,
                    0.9168810914643378,
                    -0.13746383693706218
                ],
                [
                    -0.8900121566369666,
                    -0.7523949816932968,
                    -0.6936655558808977,
                    -0.6703760652402027,
                    -0.35507438637692085,
                    0.418428354002153,
                    -0.3091799583244329,
                    0.881464348842941,
                    0.7904551598396251,
                    0.6917455210682186,
                    -0.49886431902472067,
                    0.26959118622853245,
                    0.1026333144613816,
                    -0.7493635058426061,
                    -0.3949149248293733,
                    0.066497195593284,
                    0.004955068021122558,
                    -0.6625968760867778,
                    0.8837012979850011,
                    -0.6912080752534915,
                    0.31586029303837476,
                    0.44104470435510096,
                    0.2107674641353167,
                    0.6855479431124182,
                    0.1281801313115271,
                    0.6514798809725124,
                    -0.9431471147173429,
                    -0.909888469035206,
                    0.28319316687566853,
                    0.15310339702901665,
                    0.30214883392153974,
                    0.534376515045912,
                    -0.16737663812266795,
                    0.2772202661229126,
                    -0.004660222890634592,
                    0.2540077795528434,
                    -0.4216444035670899,
                    0.9142493989851335,
                    -0.03382800420775303,
                    0.6096300268759383,
                    0.36983817792703777,
                    -0.4050507687075751,
                    -0.853902507160425,
                    -0.8802248971679888,
                    -0.12157263433222247,
                    -0.0327020119645503,
                    -0.592088530968295,
                    0.21351265400029995,
                    -0.376467001958679,
                    0.43611373361565525,
                    0.4678546423693453,
                    0.7213893796911367,
                    0.9505556114445801,
                    -0.739281725817372,
                    -0.25991082921122843,
                    0.1225527709711294,
                    -0.3633759559033252,
                    -0.06789553138555447,
                    -0.46510708404260875,
                    -0.5036672779468508,
                    -0.8076093070745521,
                    -0.4188083662008785,
                    -0.23231573021337557,
                    0.23071620415164248
                ],
                [
                    0.707220354227521,
                    -0.6796248006360517,
                    -0.33105035718559395,
                    0.15632453210673186,
                    -0.3630875154169974,
                    0.5210564727405729,
                    -0.012184798015747494,
                    0.029743967268285893,
                    0.00011781554182632568,
                    -0.39585517290124866,
                    -0.9587560222728991,
                    0.8883027411867835,
                    0.009948708337926574,
                    0.9295612959942797,
                    -0.5595715825831896,
                    -0.2928337864742141,
                    -0.890601549600235,
                    -0.00863040454813481,
                    0.7594560349780244,
                    0.30214208273770254,
                    -0.050835437857866504,
                    0.06655663375031946,
                    0.6891874145996588,
                    -0.14068362370172321,
                    0.760822009395856,
                    0.4493700522448191,
                    0.5168800835947934,
                    -0.27338054663153893,
                    -0.2021857263991139,
                    0.14144476378503856,
                    -0.601833969957759,
                    0.10708541843735375,
                    -0.8429043110329536,
                    0.007883476554036878,
                    0.5296575392423141,
                    -0.4394527985448193,
                    0.971204757335059,
                    0.3523568544898062,
                    -0.7614196943029286,
                    0.9456324481078187,
                    -0.21868983353107027,
                    0.5887867814976635,
                    -0.3125580638940574,
                    0.8784613838212787,
                    0.5075038943429494,
                    -0.6058887108021227,
                    0.02508359894181646,
                    0.009427657015088393,
                    -0.8804972551974971,
                    -0.7213772430729534,
                    -0.3310100561668164,
                    -0.0508755081438284,
                    -0.07956953769327711,
                    0.23310962678224093,
                    0.03988556466735305,
                    -0.3447103144904535,
                    0.20467639989405248,
                    -0.6655941393796939,
                    0.9807643072643387,
                    0.4654915840206605,
                    -0.4260441222395702,
                    -0.31398517563804795,
                    0.6746136257452742,
                    0.08465196562271833
                ],
                [
                    -0.40026022365828695,
                    0.632683215178141,
                    -0.26255246962732476,
                    0.34781935634499445,
                    0.9597245061835779,
                    0.16796743336398645,
                    0.5936997459919334,
                    0.45053105505775876,
                    0.3777830033416516,
                    -0.9468298535165933,
                    -0.05103966084261348,
                    0.934036189134509,
                    0.5664828880956357,
                    0.5527816990590322,
                    0.15512461132859998,
                    0.4428434527205958,
                    0.1666951028088101,
                    -0.6594445671931511,
                    0.2577827951643542,
                    0.2393268320401731,
                    0.6822897569118527,
                    -0.7048277978662473,
                    0.3609840248454086,
                    -0.9370277911185996,
                    0.896031430620282,
                    -0.7806584402902683,
                    -0.9627417404582241,
                    -0.3729941985029378,
                    -0.698172011196826,
                    0.3804989792977383,
                    -0.17937212156257928,
                    0.5500562147536406,
                    0.8409612798417592,
                    0.74582610436914,
                    0.47207438658268636,
                    -0.8760214396842272,
                    -0.7240744532847698,
                    -0.5856311216929957,
                    -0.35038839740814376,
                    0.3240316411845311,
                    0.05027725239134635,
                    -0.37284438647121415,
                    -0.6547876223593567,
                    0.8243754585107776,
                    -0.31546926333537983,
                    -0.2916138338389761,
                    0.5439064284242286,
                    0.441891709690493,
                    0.28572448212267787,
                    0.38712432465819036,
                    0.22132453358350374,
                    -0.6166132169729995,
                    -0.5062500608399291,
                    0.1172467575269683,
                    -0.5497299331938976,
                    0.9455092243213774,
                    -0.40456794497511894,
                    -0.42311702997249506,
                    -0.5856597880887792,
                    0.410139841973663,
                    -0.36500638512855493,
                    -0.302789921861324,
                    0.8665357103266202,
                    0.5908236665999015
                ],
                [
                    -0.7327272985193694,
                    0.35547919019173696,
                    -0.24446077371590172,
                    0.9573016617142603,
                    0.622135900026167,
                    0.9001503451873586,
                    0.6149958497744579,
                    -0.4081989576765032,
                    -0.4218941829193515,
                    0.43109906076610494,
                    -0.304905206285245,
                    -0.11261242395227171,
                    -0.4788300535944336,
                    -0.033118809636976485,
                    -0.5919605508779311,
                    0.08139415640068795,
                    0.8524110058397097,
                    0.3935646600075903,
                    -0.7184027308763515,
                    0.23718708219796947,
                    0.17553491560067677,
                    -0.5076970078992904,
                    0.3406555687626781,
                    0.06322666981853156,
                    0.27382256729985566,
                    -0.887296557765392,
                    -0.16084836585063944,
                    0.4382357806009037,
                    -0.7936834708811998,
                    0.5380733735129097,
                    -0.9824052289513524,
                    0.1129439652443804,
                    0.8476956190044588,
                    -0.18660071504003448,
                    0.8674221574306373,
                    0.759971173950777,
                    -0.05230879005677578,
                    -0.5878520141384745,
                    0.9352352613522186,
                    -0.3535265442087866,
                    0.27721799706840294,
                    0.8059072758713279,
                    -0.8149892755620793,
                    0.15372644293203244,
                    0.06263727350115868,
                    0.4284901615439674,
                    0.8740831108942304,
                    0.8341826481805292,
                    -0.6373394126778839,
                    0.765373771396402,
                    -0.6476333482695376,
                    0.840303653301621,
                    0.9946283070057189,
                    -0.20197815541672923,
                    -0.010006174038664481,
                    0.8795352602436447,
                    0.9153580551508165,
                    0.8517665427083403,
                    0.7575783917912402,
                    -0.9697683951423447,
                    0.13354898127083736,
                    -0.7464437549619791,
                    0.9682009526536276,
                    -0.441145881937735
                ],
                [
                    0.08670543057639696,
                    -0.012158210077386385,
                    0.8770955452168058,
                    0.7019564601278314,
                    -0.06406417379534893,
                    -0.6144517673102337,
                    -0.7749015355419774,
                    -0.6751491737022979,
                    -0.08223930723432667,
                    -0.4855454333082172,
                    -0.6277071279236601,
                    0.4731002339304754,
                    0.5815941997351312,
                    0.13554630162919587,
                    0.5144251746237769,
                    -0.6492271234714658,
                    0.712411108388245,
                    0.7940319179652792,
                    0.6538693940053932,
                    0.03036771938228886,
                    -0.8266190716939714,
                    0.3383695798375958,
                    -0.6305182130619759,
                    -0.7189689098018852,
                    -0.3528296097637439,
                    -0.5039313545771813,
                    -0.4784770149406315,
                    -0.529054149887975,
                    0.5077264592025955,
                    0.9080352430889828,
                    -0.3961462225750853,
                    0.44571343294645444,
                    -0.9771545380369645,
                    0.3073561778750151,
                    0.3854980274021913,
                    -0.876002032544341,
                    -0.7637079294460896,
                    -0.38646074756824045,
                    -0.18934811562778797,
                    0.004958061476611721,
                    0.7903255334345538,
                    0.4071070897976127,
                    -0.37825913965118657,
                    -0.7654732846914193,
                    0.8322115209642682,
                    -0.40997907488510194,
                    0.22908276029165767,
                    -0.5619871466037509,
                    -0.7329700098452308,
                    -0.6937141790967538,
                    0.4953580237362667,
                    0.2113587152240909,
                    -0.16840882193052675,
                    0.09828447744628638,
                    -0.05848875927284953,
                    0.07496650906952236,
                    0.3285479082564361,
                    -0.5631455315483267,
                    -0.5051989333766245,
                    0.5094339214921789,
                    0.7464443199542704,
                    -0.8363738867102644,
                    -0.10692790832889533,
                    0.40714534317027284
                ],
                [
                    0.13129555361955142,
                    -0.8675991965029872,
                    0.09156756122356767,
                    0.016080138972331678,
                    0.14706900030514103,
                    -0.6821391999217592,
                    -0.3297239003385913,
                    0.046262796775591586,
                    -0.7483827858589229,
                    -0.5835772757810899,
                    0.16585846567990947,
                    -0.8197118279073212,
                    0.026522745617970443,
                    0.6044096530344394,
                    -0.09123849063770287,
                    0.03486388524734128,
                    -0.08396837667800305,
                    -0.8838958003568508,
                    -0.07523208591681192,
                    0.6120546709149133,
                    0.44138675641789,
                    -0.20714847145099824,
                    0.6279833021797391,
                    0.4937690233589954,
                    0.14752128323093763,
                    -0.9023922385339964,
                    -0.30205238734638434,
                    -0.8612538589553554,
                    0.9937279938918407,
                    0.8729293057296722,
                    -0.8455021310374803,
                    0.8735575495380261,
                    -0.9228919341698655,
                    -0.18042710204366139,
                    0.5386783933486007,
                    0.5319011561011513,
                    0.9401492882928957,
                    0.2902822183881643,
                    -0.1567113960229484,
                    0.98988294226317,
                    -0.22885611818751786,
                    0.7405467512231284,
                    0.7940188086511847,
                    -0.2528728908381248,
                    0.3444523530340965,
                    0.3178094564790595,
                    0.08179454835996992,
                    0.31416049996506723,
                    -0.3259793536012077,
                    -0.6358553485668098,
                    0.08426756617686301,
                    0.054290094668128994,
                    0.4558362908318584,
                    -0.5645528174767657,
                    -0.9819242084033631,
                    -0.9443124163790241,
                    -0.3689180567741796,
                    0.3217312035319829,
                    0.07476439555069725,
                    0.06796053271370729,
                    0.6484300206745067,
                    -0.5169347295980924,
                    -0.31571206639493266,
                    -0.43331410620962935
                ],
                [
                    0.459526114507599,
                    -0.7721249376569773,
                    0.6079210654178188,
                    -0.16547888071712766,
                    0.5185153213852642,
                    0.7683181616182002,
                    -0.9535146990180249,
                    -0.5812615208340463,
                    -0.7882019221305723,
                    -0.9138383032292596,
                    0.1893308911682054,
                    0.39457623134613923,
                    -0.8924828475942522,
                    0.4763216646794406,
                    -0.20450854960730325,
                    -0.5352900432756038,
                    -0.5616342571384733,
                    0.7117472410609719,
                    -0.8891018262644192,
                    0.004948668511510716,
                    -0.4143491872773946,
                    0.6323858247853069,
                    0.45485337974192813,
                    -0.36616156208390754,
                    0.17883983396086897,
                    0.3456353700607945,
                    -0.35391826890376715,
                    -0.3960376368411418,
                    -0.7124463342158835,
                    0.31514148449178586,
                    -0.555043392287806,
                    -0.3961206118243276,
                    -0.8644213725877857,
                    0.8924435637876256,
                    0.744109170064308,
                    0.8155719229866133,
                    0.24577924776646407,
                    -0.14093876662445054,
                    -0.012920939406281374,
                    0.9407563669861723,
                    0.8697326530881818,
                    0.34449093575523654,
                    0.5620213204717975,
                    -0.3706731414580734,
                    -0.17105595886246064,
                    -0.6997081504970559,
                    -0.2505936279967351,
                    0.5066516904101714,
                    -0.06612894971333311,
                    0.6818907693451631,
                    -0.40665388418665704,
                    0.40915084909466554,
                    0.618287746018963,
                    0.8242158855403632,
                    0.12711031966886918,
                    0.9314241577179939,
                    0.12110110354866348,
                    -0.7263886009719323,
                    -0.5014610603882418,
                    -0.588970187314231,
                    0.3004112562485732,
                    0.8243581524757775,
                    0.6617561294839597,
                    -0.8167829816159686
                ],
                [
                    -0.6146787027502393,
                    -0.4582982804354199,
                    0.3435224776140744,
                    0.20847339790708563,
                    0.7407129904895838,
                    -0.6190442549431954,
                    0.5293708515293853,
                    0.4497475950549946,
                    0.12975572814938346,
                    -0.03727917966908245,
                    0.7415932068528807,
                    -0.3329488138874598,
                    0.916906849610126,
                    -0.9725334666173872,
                    0.864509739915284,
                    0.9196672753867725,
                    -0.7738897480286224,
                    0.9970816673941002,
                    -0.04434344321398952,
                    -0.5149758393164678,
                    0.19939436482515774,
                    -0.5878162320798425,
                    0.8349601673349664,
                    0.10628273879729687,
                    0.5521752691136781,
                    -0.23611818113018812,
                    0.07312692673244775,
                    -0.28026870588538194,
                    -0.4750626444725867,
                    0.023349446323199484,
                    -0.00318610542316119,
                    -0.8006731500305533,
                    0.9541857175655833,
                    -0.0633231611341738,
                    0.6758855036099138,
                    0.8259954185683412,
                    -0.25578461364431954,
                    -0.16154841932263045,
                    0.1285324213660493,
                    -0.5581875192401532,
                    -0.6987414435868133,
                    -0.47740924974331717,
                    0.8557306963642267,
                    0.15289056688804503,
                    -0.17800260648161426,
                    -0.7033514467080901,
                    -0.3429596660777669,
                    -0.23820753528303978,
                    0.6421863793414567,
                    0.008012748693102369,
                    0.3170692024936077,
                    0.3687699180133882,
                    -0.49366017929148615,
                    0.631983691388632,
                    0.9355244428061616,
                    0.28638304211276633,
                    0.014508605561285434,
                    -0.6826798317186051,
                    0.5717406780404009,
                    -0.65540517537431,
                    0.45066145732884505,
                    -0.023051968722367623,
                    0.8138529956738356,
                    0.07864335043651856
                ],
                [
                    -0.8857883590424569,
                    -0.9317165040310359,
                    0.6904449677191639,
                    0.8865239113245885,
                    0.33916772782029436,
                    0.5271479647539933,
                    -0.17881260011997507,
                    0.6805917923160529,
                    -0.5284124068898168,
                    0.411080918766382,
                    -0.9885706129133304,
                    0.005194598401901253,
                    -0.2544031958887771,
                    0.2305794758928681,
                    0.32750952550276813,
                    0.2249354728452001,
                    -0.03188539084041979,
                    -0.029389246072543472,
                    -0.9929639585504402,
                    0.09730087363923046,
                    -0.9796967621376882,
                    0.051559221036343444,
                    -0.45493557950262264,
                    0.9524643232454247,
                    -0.9672049567771303,
                    0.6237076711682142,
                    0.3427433225631194,
                    0.6048079088298273,
                    0.8208271996520173,
                    -0.7868900785000672,
                    -0.808142200572162,
                    -0.7070177864075194,
                    -0.6146261746419532,
                    0.053653045525800434,
                    0.6317348059813972,
                    -0.4673831254275385,
                    -0.21057787770749192,
                    -0.2536575922200915,
                    -0.1916232527131588,
                    0.12575084597785685,
                    0.9772153550622196,
                    -0.5529666900688349,
                    0.3639076108345836,
                    0.6896410240188483,
                    0.3053596876381412,
                    0.7086753150385527,
                    0.5150173029342578,
                    -0.8174416130867368,
                    -0.2449537104358244,
                    0.10323429332542132,
                    -0.8926119200334903,
                    -0.9868803355745516,
                    -0.6577739963507494,
                    -0.001195458640397758,
                    -0.13423528766361506,
                    0.5699284709244337,
                    0.1207442986056272,
                    0.7091551783741914,
                    -0.819840441825001,
                    0.052269229125999156,
                    -0.9291352878678776,
                    -0.5856312116991775,
                    0.730519309576952,
                    0.7765290846055267
                ],
                [
                    -0.9043316247765503,
                    -0.8518056496821588,
                    0.8495392512227707,
                    0.7995106019851816,
                    0.12349338130259038,
                    -0.9332796586573623,
                    0.8581158158578744,
                    -0.37230669862184385,
                    0.9230955018699415,
                    0.177538403874451,
                    0.504078059897939,
                    0.42352512459991243,
                    -0.2016133341362764,
                    -0.8438178997648382,
                    -0.6755974232589526,
                    -0.5200436331698158,
                    0.6640406787432356,
                    -0.22142105899686246,
                    0.791165801435566,
                    -0.3360339452674402,
                    0.5129633870688141,
                    -0.7187030074193107,
                    0.9765739232331507,
                    0.44725890368742544,
                    -0.0006557883153639817,
                    0.9497113724835264,
                    -0.8886910981734092,
                    -0.12464633384023735,
                    0.679528277130521,
                    -0.31871300068139735,
                    0.5368670938161508,
                    0.9109633571537165,
                    -0.2074750966688051,
                    0.5456549556113,
                    -0.9412923098174836,
                    -0.45255473750965075,
                    0.9807715388495815,
                    -0.017452637258248593,
                    -0.28769037334553843,
                    0.8823588910377664,
                    -0.1416074003103083,
                    0.3595440330690977,
                    0.32099200917027537,
                    -0.8287399553253156,
                    0.2336610911253553,
                    0.5923419165473803,
                    0.4261332272931335,
                    -0.8323267674160939,
                    -0.6910081006366224,
                    0.4250465399307127,
                    0.26845057111438114,
                    0.48033480983035665,
                    -0.3655526229013037,
                    -0.7867792365493481,
                    -0.9923855395549392,
                    -0.38294930914288355,
                    -0.2759913146309609,
                    -0.4557439191515712,
                    -0.7370030293343545,
                    -0.6244311573842323,
                    -0.09775347517534107,
                    0.11475057142634726,
                    -0.18512990865070436,
                    -0.9522207393785043
                ],
                [
                    -0.7952810840683295,
                    0.18867003182812025,
                    -0.3622072201764966,
                    -0.23476751835419313,
                    -0.41208982868826244,
                    -0.22554410500930622,
                    -0.829124893947143,
                    0.7976328737143024,
                    0.7840252324713859,
                    0.9526466228029836,
                    0.14746459266514722,
                    -0.6538176249224573,
                    -0.23277022528908276,
                    -0.7182308779350923,
                    -0.3929242484901435,
                    -0.01026034897486816,
                    -0.8620595127560484,
                    -0.13703464189434372,
                    -0.1595043115342447,
                    -0.03007233162229105,
                    -0.8355102450722539,
                    -0.48024441428606657,
                    -0.501953802580537,
                    0.2459488987143971,
                    0.17770253291368865,
                    -0.6036354567207384,
                    -0.7669654654355422,
                    -0.37519530835434023,
                    0.8878937835687402,
                    -0.3396321645738514,
                    0.23994861869161951,
                    0.6114276834671224,
                    -0.3330046795955388,
                    -0.3292995226376931,
                    0.6159266828338265,
                    0.7073912551931529,
                    0.9411072455407562,
                    -0.7211137213896284,
                    -0.3585941329927246,
                    0.8959606144029711,
                    -0.5942457419443594,
                    -0.36723130770652596,
                    0.9334022350451759,
                    0.9385379426869903,
                    -0.41674300155053634,
                    0.39636562416521376,
                    -0.0008325750804836546,
                    0.15787832208345587,
                    -0.4922440319511971,
                    -0.2453492850780851,
                    0.6278434358593054,
                    -0.21264855525102214,
                    -0.7586193633406977,
                    0.1059493553149953,
                    0.1692965993369429,
                    0.0932028707314443,
                    0.3691583092049909,
                    0.10322773420058975,
                    0.8859675003358579,
                    -0.0950016941372454,
                    0.37640214490014484,
                    -0.08771710728019205,
                    -0.3904723829163225,
                    0.38380153027384495
                ],
                [
                    0.5837499652127665,
                    -0.18036421632175362,
                    0.0068450726049505235,
                    0.2739506674211424,
                    -0.5104020031682337,
                    0.3175173205518505,
                    0.43043371990883617,
                    0.5811164524831958,
                    -0.8486340415679485,
                    0.9755065432338981,
                    -0.03812822879039319,
                    -0.19036054496553642,
                    0.010725944917237407,
                    0.8402952990364735,
                    0.3870947248628352,
                    0.09043244215616707,
                    0.5776320550437619,
                    -0.27693975412064437,
                    0.794350722837516,
                    0.07856927608145249,
                    0.2726998135900176,
                    -0.8292324942594723,
                    0.5447365410803354,
                    0.3220157095189673,
                    -0.28750041011285576,
                    0.2923119667259791,
                    -0.909249899540514,
                    0.9690659768079163,
                    0.34899409036463885,
                    -0.20090070712039018,
                    0.5023015764103458,
                    0.9329393278492829,
                    -0.1392195098436688,
                    -0.9733898066603361,
                    -0.47392358026117537,
                    0.030726300816284937,
                    0.043347604447514225,
                    0.16492742284124753,
                    0.15253822636709116,
                    -0.10305208142781253,
                    -0.21694380063064864,
                    0.543628492171086,
                    0.18282213433472072,
                    0.007193967215504434,
                    -0.30302951036763376,
                    -0.9448444404501548,
                    -0.7839958619900763,
                    -0.16316974338209475,
                    0.9212359051341427,
                    -0.7701158932257139,
                    0.8811730710047557,
                    -0.7071958626746329,
                    -0.36604680747442164,
                    -0.08561707451170375,
                    -0.5884898610367767,
                    -0.030479655287934213,
                    -0.07458580399466229,
                    -0.11798069252853717,
                    0.3938462613147554,
                    -0.35651883585638994,
                    -0.43217686120999915,
                    0.6188179076374642,
                    -0.7455498088418647,
                    0.7261479864364743
                ],
                [
                    0.3544630347492854,
                    -0.6713439783195325,
                    0.967568906128529,
                    -0.5122494260721014,
                    -0.6512190238028036,
                    -0.679687629870429,
                    0.11976891677034052,
                    0.9168552100027905,
                    -0.5360926710374554,
                    -0.18974892904324675,
                    -0.6311811217555595,
                    0.2807496442582169,
                    -0.13575968729258295,
                    -0.9417047151291872,
                    0.22805549892234112,
                    -0.605491680536688,
                    0.18421066790226545,
                    -0.22247073270392934,
                    0.40939582704416494,
                    -0.5885082551260976,
                    0.5046086732810243,
                    0.6174154537564738,
                    -0.8749411076071133,
                    -0.7965629936364159,
                    0.7438639219469639,
                    -0.6260558348073788,
                    -0.34798705541850394,
                    -0.08494811248585327,
                    -0.47521813640976124,
                    0.7252712377629698,
                    0.055403833407171636,
                    0.27818087553252757,
                    0.19384837306415906,
                    0.2225162574194427,
                    0.17393273356232053,
                    -0.30418841232846666,
                    0.6909309429655419,
                    0.23488412141863407,
                    0.6274758378375423,
                    0.4119106290401537,
                    -0.40512766034427883,
                    0.22894708782342546,
                    -0.8306955747025766,
                    -0.7323078283018523,
                    -0.764494503364381,
                    -0.38946973030979504,
                    -0.6340147128601642,
                    0.38680091764032226,
                    0.021537879202224112,
                    -0.16355063052428243,
                    -0.7243609070503991,
                    -0.23272462890049941,
                    -0.6284189680983108,
                    0.2708325440867684,
                    0.3867062292560271,
                    0.2904916867936194,
                    0.9999987995019105,
                    0.10979505356186699,
                    -0.020805550799403154,
                    -0.719319247234986,
                    -0.3707196429571766,
                    -0.09790429982925161,
                    -0.8930143528383553,
                    -0.2821443477239225
                ],
                [
                    -0.7077381278364555,
                    0.6230954072525204,
                    0.9010160700579437,
                    0.0009533189348144165,
                    -0.00938763612238595,
                    0.3809061051076432,
                    -0.1549740469391161,
                    0.6728835204160566,
                    -0.023048094060761817,
                    -0.8180322877237919,
                    -0.9398552230769477,
                    0.5089264505587949,
                    -0.39887176691612797,
                    -0.45460890563491735,
                    0.06903939695498484,
                    -0.6633681357996991,
                    -0.08792625719569444,
                    0.4706880870350936,
                    0.5243661863148052,
                    0.09178043528318003,
                    -0.7625939602776537,
                    -0.7618456617293757,
                    0.5401235092958975,
                    0.6361943593191338,
                    -0.29010380033761557,
                    0.6423641013433623,
                    -0.90432186641328,
                    0.4455647933364139,
                    0.08974589833936032,
                    0.9807066882788952,
                    -0.7920726443245657,
                    0.6585128725066085,
                    0.5066955681616723,
                    -0.4055669164226937,
                    0.9807364710393695,
                    -0.1131699587389166,
                    -0.30835792196625667,
                    0.6350428903250086,
                    -0.1355460061756401,
                    0.9768668382505328,
                    0.5436745641894366,
                    -0.5174534485917213,
                    0.5992723635327818,
                    0.15580302149251282,
                    -0.3077689558418797,
                    0.42113637878369736,
                    0.26524434445865275,
                    -0.6684211318560428,
                    -0.739883717226411,
                    -0.6000999248081212,
                    -0.5873725254349174,
                    -0.8827549590118193,
                    -0.279017464998932,
                    -0.4512258642952712,
                    0.06357227354332105,
                    -0.35807001557291274,
                    0.4278767559516022,
                    -0.41273148794052733,
                    -0.46383803360886844,
                    0.7114465330768139,
                    0.979181994558669,
                    0.35319262685154135,
                    -0.8186294013533187,
                    0.9233659705988599
                ],
                [
                    0.8375020672456162,
                    0.9851635468806318,
                    0.7343220557310044,
                    -0.7461325864852028,
                    0.7321110884172841,
                    -0.5004341000309253,
                    0.42284831641749054,
                    0.6571018902526222,
                    0.5226050744666418,
                    0.3522824955620116,
                    -0.02100327777505734,
                    0.1550460346695293,
                    -0.4624127218455117,
                    -0.17172550897405708,
                    -0.0962068794267621,
                    0.2672627528264476,
                    0.7602297642527773,
                    -0.8138490979549031,
                    0.03114222935937422,
                    -0.4434789280651581,
                    0.8723227585970961,
                    -0.2618691874626885,
                    0.9006437331340942,
                    -0.3454215311410972,
                    -0.9950886197325132,
                    0.5485528957894436,
                    0.4654108272783402,
                    0.4621191640414591,
                    -0.08307274844642941,
                    0.32829583103161064,
                    -0.2834567905904288,
                    -0.873344937875025,
                    0.06882850328900895,
                    -0.5644290379623272,
                    -0.14070977712768812,
                    -0.5761690322820797,
                    -0.46281210027436887,
                    0.6567010437302818,
                    -0.3243903161916841,
                    0.15591964770062913,
                    0.13247141620773348,
                    -0.02926204579313268,
                    -0.31244788120035294,
                    0.36531182810612606,
                    -0.903209063423077,
                    -0.8007811993833978,
                    0.5677211442075506,
                    -0.08076285778218685,
                    -0.7518770244051276,
                    0.7157113410083559,
                    -0.11714975683120199,
                    -0.998482539136384,
                    0.9158309303030622,
                    -0.5956137035273612,
                    0.3775006749941712,
                    -0.7357960938870188,
                    0.3001875046902511,
                    -0.68236243254572,
                    0.8652179565452749,
                    -0.4520214336351443,
                    0.3089750869142663,
                    -0.49931143304322245,
                    -0.2565091490268791,
                    0.807711989518217
                ],
                [
                    -0.20740749625974989,
                    -0.38849440817936914,
                    0.3989948835561358,
                    -0.5271989766563696,
                    0.3052329776956791,
                    0.4063124129359105,
                    -0.9911482124303446,
                    -0.04053187913068229,
                    -0.7245546687151585,
                    -0.5422003496692356,
                    0.3637689915895324,
                    -0.9796340035198772,
                    0.38858540817340337,
                    0.6331853658345948,
                    0.9740095100994834,
                    -0.15246679584980416,
                    -0.7356384948393915,
                    -0.857613658001758,
                    -0.22927552590673272,
                    0.465294255351799,
                    -0.7910078192083144,
                    -0.3708733318595073,
                    0.763202921757783,
                    -0.7226029875579149,
                    0.5434882220387826,
                    0.5057882130901143,
                    -0.7329555486990753,
                    0.988060309942793,
                    -0.7138020792766558,
                    0.06363328256608845,
                    -0.9749022490166608,
                    0.304192614644895,
                    -0.1290846184122571,
                    0.44085317682907776,
                    0.26120226866415314,
                    -0.6897620529496988,
                    -0.17306456201074724,
                    0.374011409639171,
                    0.7191309447305223,
                    -0.8216371968195576,
                    -0.7930166624784964,
                    0.5059074832155941,
                    0.18082570966038825,
                    -0.22735349656941553,
                    0.918521305663489,
                    -0.3704810506087268,
                    -0.7139750622021152,
                    -0.44047659814590767,
                    -0.8365592721048911,
                    0.10650795557986047,
                    0.20343013027663395,
                    0.2173438311340568,
                    0.5617531910612155,
                    0.376024661258541,
                    0.6904345451380577,
                    0.3185814492185072,
                    -0.3937138691663836,
                    0.03186551239011795,
                    0.019133549495464114,
                    0.5007118421602236,
                    -0.4078265709519419,
                    -0.8888071795944834,
                    0.7971440225034926,
                    0.9114401056327781
                ],
                [
                    -0.756123931777341,
                    -0.0010720715026590025,
                    0.18190137362261916,
                    0.06256391509990578,
                    0.952169896636997,
                    0.9691702996302164,
                    0.8667377922814291,
                    -0.7308660762480126,
                    0.6997639497393988,
                    0.13915458981116383,
                    -0.25887908377232477,
                    0.3801639207592708,
                    0.5211722602957363,
                    0.9102799044616896,
                    0.5509402890303964,
                    -0.9500599006214511,
                    -0.8637359076125709,
                    -0.47826747633690725,
                    -0.9071303433500321,
                    -0.8621589798934494,
                    0.5843141464544498,
                    0.024583545801854314,
                    0.26099383041965596,
                    0.007978896217782427,
                    -0.17119097524030508,
                    0.40666580043635314,
                    -0.8181477021013475,
                    0.09307022511663705,
                    0.23481120851702955,
                    -0.4356782353346079,
                    -0.3696818097012566,
                    0.035883646948819056,
                    -0.5879882434461364,
                    0.6175566838406138,
                    0.07249356877516788,
                    -0.21677970267522362,
                    0.2676727344797594,
                    0.6682823398343031,
                    0.36948757905442114,
                    -0.8504998835020615,
                    0.3948235082128345,
                    0.4617557997152126,
                    0.6953104588700778,
                    -0.8736629638651782,
                    -0.823060465831171,
                    -0.12706607966670955,
                    -0.08222096147901188,
                    0.22386999716793318,
                    -0.36179513064046537,
                    0.4865603709724529,
                    0.477824110135333,
                    -0.7551313434983128,
                    0.42549224890348536,
                    0.3857600553857178,
                    -0.6777195099353407,
                    0.910921631949163,
                    0.03428731851000283,
                    0.5801389858499694,
                    0.4527865227750728,
                    -0.6620098990112948,
                    -0.7392012046440509,
                    0.5823340061336937,
                    -0.43862818868283704,
                    0.7659043122576257
                ],
                [
                    -0.9447251041797176,
                    0.6136216679282049,
                    -0.45725051488342505,
                    -0.8736183286059854,
                    0.4283145346862453,
                    0.15569099817954626,
                    -0.8463731293767247,
                    -0.09127757674102714,
                    -0.2737476020244326,
                    0.0010535933904543483,
                    0.129285434692647,
                    -0.2679856227199383,
                    -0.490802025693173,
                    -0.7966943111593537,
                    0.14587597550236922,
                    0.44348415566308014,
                    -0.5463508485010672,
                    0.01800404662168897,
                    -0.9132093906571136,
                    0.7244457514331485,
                    -0.5108513563030783,
                    -0.060364622388257384,
                    -0.23867742156230462,
                    -0.7017165264199756,
                    0.8655461654195249,
                    0.7142072469736581,
                    0.10040554190530543,
                    0.8209988062894623,
                    0.4800524467350839,
                    -0.16251369283260728,
                    -0.3567471378505568,
                    -0.16900987799585077,
                    0.4400910847269502,
                    -0.4570049894477816,
                    -0.8459712591638975,
                    -0.2552500891524784,
                    0.0028633533053182975,
                    0.8024194378665757,
                    -0.6439249655841716,
                    0.6043501463138689,
                    0.9625315660432169,
                    0.9083200613418461,
                    -0.8647937586949335,
                    -0.07309999111268921,
                    -0.4367118425094618,
                    0.69020686287496,
                    -0.3497645148805703,
                    0.10358409648370158,
                    -0.9939008444329352,
                    -0.600031872559875,
                    0.1290851441265483,
                    -0.39362850264742394,
                    0.24332281747649903,
                    -0.0702273498105153,
                    0.18405732490721774,
                    -0.014860170757443001,
                    0.5456067689187352,
                    -0.6165392416366728,
                    0.7984068933807209,
                    0.52182533008242,
                    -0.5167947802140804,
                    -0.9966631141305317,
                    -0.1863397926760152,
                    -0.5315748490871927
                ],
                [
                    0.6582489783154282,
                    0.7487243834288898,
                    0.9183959412496715,
                    -0.9801019541422914,
                    0.3127128453591437,
                    0.6970297976521673,
                    0.4573947600833828,
                    -0.7807285678315483,
                    0.05712365248801156,
                    -0.5301169223085717,
                    -0.006283726427171572,
                    -0.8632961333066625,
                    0.9840251979888881,
                    0.4260749578456728,
                    -0.8091652585274459,
                    0.8481068241609382,
                    0.7906837985619407,
                    0.04997360813141683,
                    0.40792762269309135,
                    -0.2449223500653787,
                    0.939273524025553,
                    -0.8247537052289526,
                    -0.78964576379462,
                    -0.7159160320287793,
                    0.6513606442766549,
                    -0.8454204063821846,
                    0.13743758003051754,
                    -0.12459159158568132,
                    0.9194329733007855,
                    -0.5240043754299591,
                    -0.4740504402326853,
                    -0.3579854896627727,
                    0.5910740400184963,
                    0.4057353945592591,
                    0.4829084268827542,
                    -0.34561093664587544,
                    -0.44046435870184303,
                    -0.8451798266426281,
                    -0.5830328848072361,
                    0.5709036048539509,
                    0.1817770960320078,
                    -0.6879908638076739,
                    -0.6538802891815124,
                    -0.054240562102612376,
                    -0.1805878630163458,
                    0.07340657292791938,
                    0.9320668176170289,
                    -0.5761661734753767,
                    -0.38056406588995506,
                    -0.4568002845590837,
                    -0.7459275415552359,
                    -0.6674976571984215,
                    0.3588623053153258,
                    0.6573285437212376,
                    0.3975725553031123,
                    -0.9025590276292007,
                    0.6664310435368563,
                    -0.3349360677384542,
                    -0.8071835674297118,
                    -0.4909651422823512,
                    -0.2825714788535123,
                    0.045096248315890756,
                    0.377276573608909,
                    -0.4730042865341535
                ],
                [
                    -0.9353301384012539,
                    -0.18930584629585018,
                    -0.09433213631870334,
                    0.49699567248857285,
                    -0.498057495549212,
                    -0.07554518846307409,
                    0.607981265663316,
                    -0.7194333927267187,
                    -0.9746606706327392,
                    0.660869654242791,
                    0.9656902099430031,
                    -0.7358532882569806,
                    0.6445094771716767,
                    -0.2540101068071971,
                    0.2614345779494175,
                    0.29018798221633424,
                    0.1630550043426453,
                    -0.4802664548644559,
                    0.6261720237134327,
                    -0.9552090267388631,
                    -0.8691036460819294,
                    0.8049601450009876,
                    -0.11092276488961617,
                    -0.740854821788436,
                    0.8077827068610498,
                    0.6581355325790504,
                    -0.33421665323800054,
                    -0.9108636250843264,
                    -0.07685341462131594,
                    -0.6618900341815347,
                    0.14789129610607563,
                    0.6443613211447987,
                    -0.2101185028331788,
                    -0.940845734873372,
                    0.3684416053358845,
                    -0.6523141118865713,
                    -0.565912432134797,
                    -0.6232305249631758,
                    -0.43875130745637886,
                    0.7665666797259756,
                    -0.9303857541203918,
                    0.23941337934616744,
                    -0.5061403903862656,
                    -0.4079140974309489,
                    -0.17392889830775518,
                    0.10219812903783002,
                    -0.8750007413573123,
                    -0.4390607596889733,
